{"learner":{"attributes":{},"feature_names":["lead_time","party_size","deposit_paid","is_repeated_guest","previous_cancellations","total_of_special_requests","month_sin","month_cos"],"feature_types":["int","float","int","int","int","int","float","float"],"gradient_booster":{"model":{"cats":{"enc":[],"feature_segments":[],"sorted_idx":[]},"gbtree_model_param":{"num_parallel_tree":"1","num_trees":"100"},"iteration_indptr":[0,1,2,3,4,5,6,7,8,9,10,11,12,13,14,15,16,17,18,19,20,21,22,23,24,25,26,27,28,29,30,31,32,33,34,35,36,37,38,39,40,41,42,43,44,45,46,47,48,49,50,51,52,53,54,55,56,57,58,59,60,61,62,63,64,65,66,67,68,69,70,71,72,73,74,75,76,77,78,79,80,81,82,83,84,85,86,87,88,89,90,91,92,93,94,95,96,97,98,99,100],"tree_info":[0,0,0,0,0,0,0,0,0,0,0,0,0,0,0,0,0,0,0,0,0,0,0,0,0,0,0,0,0,0,0,0,0,0,0,0,0,0,0,0,0,0,0,0,0,0,0,0,0,0,0,0,0,0,0,0,0,0,0,0,0,0,0,0,0,0,0,0,0,0,0,0,0,0,0,0,0,0,0,0,0,0,0,0,0,0,0,0,0,0,0,0,0,0,0,0,0,0,0,0],"trees":[{"base_weights":[1.2105876E-8,1.4006016E-1,-8.6069626E-1,6.176194E-1,-8.189695E-2,-7.6202977E-1,-1.6128595E0,4.4457337E-1,1.5117525E0,-1.35508E-1,1.9151113E0,-9.110945E-1,-1.6922523E-1,-1.7308197E0,1.4150724E0,5.1550746E-2,-8.468417E-3,4.374509E-3,1.7919067E-1,4.9980967E-3,-3.0218367E-2,-1.3849114E-1,1.9342844E-1,-1.98533E-1,-8.6070985E-2,-4.115025E-2,1.08088516E-1,-1.9938742E-1,-1.2340933E-1,-1.2729995E-1,1.7652516E-1],"categories":[],"categories_nodes":[],"categories_segments":[],"categories_sizes":[],"default_left":[0,0,0,0,0,0,0,0,0,0,0,0,0,0,0,0,0,0,0,0,0,0,0,0,0,0,0,0,0,0,0],"id":0,"left_children":[1,3,5,7,9,11,13,15,17,19,21,23,25,27,29,-1,-1,-1,-1,-1,-1,-1,-1,-1,-1,-1,-1,-1,-1,-1,-1],"loss_changes":[3.625449E3,2.7417207E3,3.1113818E2,1.2692E3,1.890879E3,3.2881885E2,1.764674E2,2.5825354E2,5.470759E2,5.3172986E2,3.1894287E1,1.5929004E2,2.2737648E2,5.887256E1,1.9961391E1,0E0,0E0,0E0,0E0,0E0,0E0,0E0,0E0,0E0,0E0,0E0,0E0,0E0,0E0,0E0,0E0],"parents":[2147483647,0,0,1,1,2,2,3,3,4,4,5,5,6,6,7,7,8,8,9,9,10,10,11,11,12,12,13,13,14,14],"right_children":[2,4,6,8,10,12,14,16,18,20,22,24,26,28,30,-1,-1,-1,-1,-1,-1,-1,-1,-1,-1,-1,-1,-1,-1,-1,-1],"split_conditions":[1.49E2,2E0,3.12E2,1.1E2,1E0,5E-1,1E0,1E0,5E-1,1E0,-2.4492937E-16,1.54E2,8.660254E-1,1.2246469E-16,3.42E2,5.1550746E-2,-8.468417E-3,4.374509E-3,1.7919067E-1,4.9980967E-3,-3.0218367E-2,-1.3849114E-1,1.9342844E-1,-1.98533E-1,-8.6070985E-2,-4.115025E-2,1.08088516E-1,-1.9938742E-1,-1.2340933E-1,-1.2729995E-1,1.7652516E-1],"split_indices":[0,1,0,0,2,7,2,3,7,5,6,0,6,6,0,0,0,0,0,0,0,0,0,0,0,0,0,0,0,0,0],"split_type":[0,0,0,0,0,0,0,0,0,0,0,0,0,0,0,0,0,0,0,0,0,0,0,0,0,0,0,0,0,0,0],"sum_hessian":[3.0072426E4,2.586438E4,4.208045E3,8.206224E3,1.7658158E4,3.7218384E3,4.8620627E2,6.8768164E3,1.3294073E3,1.7197414E4,4.6074417E2,2.9735757E3,7.482628E2,4.683875E2,1.7818764E1,6.064097E3,8.127191E2,2.1323135E2,1.116176E3,8.1396787E3,9.057734E3,2.2499998E0,4.5849417E2,1.3149998E2,2.8420757E3,6.273502E2,1.2091259E2,3.0424997E2,1.6413753E2,1.7499999E0,1.6068764E1],"tree_param":{"num_deleted":"0","num_feature":"8","num_nodes":"31","size_leaf_vector":"1"}},{"base_weights":[6.287675E-6,1.2619224E-1,-7.768496E-1,5.568455E-1,-7.371762E-2,-9.1917044E-1,-3.4501672E-1,4.0037173E-1,1.3703434E0,-1.21974535E-1,1.7404944E0,-1.4531862E0,-8.355817E-1,-6.03755E-1,4.3507585E-1,2.0246515E-2,5.7196856E-2,3.9391234E-3,1.626393E-1,-4.221149E-2,-2.428823E-3,-1.2934381E-1,1.7582604E-1,-9.626485E-2,-1.8722673E-1,-7.844048E-2,-1.8280588E-1,-9.034423E-2,6.444162E-3,-1.9173776E-1,9.0247095E-2],"categories":[],"categories_nodes":[],"categories_segments":[],"categories_sizes":[],"default_left":[0,0,0,0,0,0,0,0,0,0,0,0,0,0,0,0,0,0,0,0,0,0,0,0,0,0,0,0,0,0,0],"id":1,"left_children":[1,3,5,7,9,11,13,15,17,19,21,23,25,27,29,-1,-1,-1,-1,-1,-1,-1,-1,-1,-1,-1,-1,-1,-1,-1,-1],"loss_changes":[2.9451782E3,2.2251667E3,2.5769922E2,1.0424956E3,1.5456843E3,1.3970483E2,2.1062976E2,2.333164E2,4.502732E2,5.0417978E2,2.6931274E1,8.57561E1,1.3733142E2,1.5686942E2,2.8779443E2,0E0,0E0,0E0,0E0,0E0,0E0,0E0,0E0,0E0,0E0,0E0,0E0,0E0,0E0,0E0,0E0],"parents":[2147483647,0,0,1,1,2,2,3,3,4,4,5,5,6,6,7,7,8,8,9,9,10,10,11,11,12,12,13,13,14,14],"right_children":[2,4,6,8,10,12,14,16,18,20,22,24,26,28,30,-1,-1,-1,-1,-1,-1,-1,-1,-1,-1,-1,-1,-1,-1,-1,-1],"split_conditions":[1.49E2,2E0,6.123234E-17,1.1E2,1E0,-8.660254E-1,2E0,8E0,5E-1,-5E-1,-2.4492937E-16,2.23E2,3.63E2,8.660254E-1,1.87E2,2.0246515E-2,5.7196856E-2,3.9391234E-3,1.626393E-1,-4.221149E-2,-2.428823E-3,-1.2934381E-1,1.7582604E-1,-9.626485E-2,-1.8722673E-1,-7.844048E-2,-1.8280588E-1,-9.034423E-2,6.444162E-3,-1.9173776E-1,9.0247095E-2],"split_indices":[0,1,7,0,2,6,5,0,7,6,6,0,0,6,0,0,0,0,0,0,0,0,0,0,0,0,0,0,0,0,0],"split_type":[0,0,0,0,0,0,0,0,0,0,0,0,0,0,0,0,0,0,0,0,0,0,0,0,0,0,0,0,0,0,0],"sum_hessian":[3.004216E4,2.5844959E4,4.1972E3,8.193161E3,1.7651797E4,3.155953E3,1.0412477E3,6.8727095E3,1.3204517E3,1.7195346E4,4.564528E2,4.2491986E2,2.731033E3,7.8207715E2,2.591705E2,3.1926885E3,3.680021E3,2.1323013E2,1.1072216E3,4.2215E3,1.2973845E4,2.2393117E0,4.542135E2,1.972888E2,2.2763107E2,2.5988157E3,1.3221721E2,5.3967847E2,2.4239868E2,4.2443783E1,2.1672672E2],"tree_param":{"num_deleted":"0","num_feature":"8","num_nodes":"31","size_leaf_vector":"1"}},{"base_weights":[3.713132E-5,1.2527813E-1,-6.449959E-1,5.0986063E-1,-5.775826E-2,-5.6748E-1,-1.3596548E0,3.7061784E-1,1.4015719E0,-1.0263783E-1,1.6073269E0,-6.5964353E-1,-1.7477037E-1,-1.4682691E0,1.3653609E0,1.823211E-2,5.2826E-2,-8.872437E-2,1.5267995E-1,6.002785E-3,-2.794972E-2,-1.2154474E-1,1.6241096E-1,-2.379181E-2,-7.466697E-2,-7.4629545E-2,2.8755749E-2,-1.7066363E-1,-1.02573596E-1,-1.1435562E-1,1.6871451E-1],"categories":[],"categories_nodes":[],"categories_segments":[],"categories_sizes":[],"default_left":[0,0,0,0,0,0,0,0,0,0,0,0,0,0,0,0,0,0,0,0,0,0,0,0,0,0,0,0,0,0,0],"id":2,"left_children":[1,3,5,7,9,11,13,15,17,19,21,23,25,27,29,-1,-1,-1,-1,-1,-1,-1,-1,-1,-1,-1,-1,-1,-1,-1,-1],"loss_changes":[2.4211975E3,1.7667399E3,2.691842E2,1.0043772E3,1.2709707E3,1.5906189E2,1.4292572E2,2.0773401E2,3.1455762E2,4.7643896E2,2.3121094E1,1.3053857E2,2.2145914E2,4.6599243E1,1.7081463E1,0E0,0E0,0E0,0E0,0E0,0E0,0E0,0E0,0E0,0E0,0E0,0E0,0E0,0E0,0E0,0E0],"parents":[2147483647,0,0,1,1,2,2,3,3,4,4,5,5,6,6,7,7,8,8,9,9,10,10,11,11,12,12,13,13,14,14],"right_children":[2,4,6,8,10,12,14,16,18,20,22,24,26,28,30,-1,-1,-1,-1,-1,-1,-1,-1,-1,-1,-1,-1,-1,-1,-1,-1],"split_conditions":[1.35E2,2E0,3.12E2,1.16E2,1E0,5E-1,1E0,8E0,-5E-1,3.1E1,-2.4492937E-16,1.49E2,1E0,1.2246469E-16,3.42E2,1.823211E-2,5.2826E-2,-8.872437E-2,1.5267995E-1,6.002785E-3,-2.794972E-2,-1.2154474E-1,1.6241096E-1,-2.379181E-2,-7.466697E-2,-7.4629545E-2,2.8755749E-2,-1.7066363E-1,-1.02573596E-1,-1.1435562E-1,1.6871451E-1],"split_indices":[0,1,0,0,2,7,2,0,7,0,6,0,5,6,0,0,0,0,0,0,0,0,0,0,0,0,0,0,0,0,0],"split_type":[0,0,0,0,0,0,0,0,0,0,0,0,0,0,0,0,0,0,0,0,0,0,0,0,0,0,0,0,0,0,0],"sum_hessian":[2.9969031E4,2.5096959E4,4.8720737E3,8.0922783E3,1.700468E4,4.3969497E3,4.751238E2,7.000543E3,1.0917355E3,1.6559291E4,4.4538947E2,3.560638E3,8.3631177E2,4.5735562E2,1.7768188E1,3.1910852E3,3.8094575E3,5.631769E1,1.0354177E3,8.626116E3,7.9331743E3,2.210252E0,4.431792E2,6.097155E2,2.9509224E3,3.7371494E2,4.6259686E2,2.9538968E2,1.6196593E2,1.7295188E0,1.6038671E1],"tree_param":{"num_deleted":"0","num_feature":"8","num_nodes":"31","size_leaf_vector":"1"}},{"base_weights":[9.028752E-5,1.13200724E-1,-5.8546704E-1,4.6185154E-1,-5.197347E-2,-5.138608E-1,-1.260179E0,3.2491058E-1,1.2437851E0,-9.239996E-2,1.5022463E0,-1.0958431E0,-4.5920756E-1,-1.3615867E0,1.2495328E0,3.372677E-2,-2.0469777E-1,-1.0391809E-2,1.4499782E-1,8.437182E-3,-2.5316263E-2,-1.1480019E-1,1.5183277E-1,-7.4364685E-2,-1.6940665E-1,-6.709617E-2,-3.069212E-2,-1.5951821E-1,-9.373983E-2,-1.082226E-1,1.5501136E-1],"categories":[],"categories_nodes":[],"categories_segments":[],"categories_sizes":[],"default_left":[0,0,0,0,0,0,0,0,0,0,0,0,0,0,0,0,0,0,0,0,0,0,0,0,0,0,0,0,0,0,0],"id":3,"left_children":[1,3,5,7,9,11,13,15,17,19,21,23,25,27,29,-1,-1,-1,-1,-1,-1,-1,-1,-1,-1,-1,-1,-1,-1,-1,-1],"loss_changes":[1.9782003E3,1.4415741E3,2.329668E2,8.612494E2,1.0674077E3,1.3859387E2,1.19599365E2,2.0143323E2,3.3330603E2,4.7052844E2,2.009845E1,7.768622E1,1.2876471E2,4.2671753E1,1.4652626E1,0E0,0E0,0E0,0E0,0E0,0E0,0E0,0E0,0E0,0E0,0E0,0E0,0E0,0E0,0E0,0E0],"parents":[2147483647,0,0,1,1,2,2,3,3,4,4,5,5,6,6,7,7,8,8,9,9,10,10,11,11,12,12,13,13,14,14],"right_children":[2,4,6,8,10,12,14,16,18,20,22,24,26,28,30,-1,-1,-1,-1,-1,-1,-1,-1,-1,-1,-1,-1,-1,-1,-1,-1],"split_conditions":[1.35E2,2E0,3.12E2,1.1E2,1E0,-8.660254E-1,1E0,3E0,5E-1,1E0,-2.4492937E-16,2.23E2,1E0,1.2246469E-16,3.42E2,3.372677E-2,-2.0469777E-1,-1.0391809E-2,1.4499782E-1,8.437182E-3,-2.5316263E-2,-1.1480019E-1,1.5183277E-1,-7.4364685E-2,-1.6940665E-1,-6.709617E-2,-3.069212E-2,-1.5951821E-1,-9.373983E-2,-1.082226E-1,1.5501136E-1],"split_indices":[0,1,0,0,2,6,2,5,7,5,6,0,5,6,0,0,0,0,0,0,0,0,0,0,0,0,0,0,0,0,0],"split_type":[0,0,0,0,0,0,0,0,0,0,0,0,0,0,0,0,0,0,0,0,0,0,0,0,0,0,0,0,0,0,0],"sum_hessian":[2.9865453E4,2.5031078E4,4.834375E3,8.045913E3,1.6985164E4,4.372129E3,4.6224628E2,6.848026E3,1.1978873E3,1.6555482E4,4.2968076E2,3.736986E2,3.9984302E3,4.447338E2,1.7512474E1,6.813387E3,3.4638737E1,1.5901855E2,1.0388688E3,7.885358E3,8.670125E3,2.1670034E0,4.2751376E2,2.3662933E2,1.3706929E2,1.6712091E3,2.327221E3,2.8501755E2,1.5971625E2,1.7027688E0,1.5809705E1],"tree_param":{"num_deleted":"0","num_feature":"8","num_nodes":"31","size_leaf_vector":"1"}},{"base_weights":[1.405328E-4,9.343266E-2,-5.84356E-1,4.138409E-1,-5.3356756E-2,-1.6898228E-1,-5.413949E-1,2.931132E-1,1.085864E0,-8.860658E-2,1.4170548E0,-4.598635E-1,-1.1773578E0,3.5389278E-2,-1.5783614E-2,1.6922351E-4,1.3285251E-1,-3.580567E-2,-1.0143282E-4,-1.0889311E-1,1.4326338E-1,-6.0057588E-2,-3.919623E-3,-1.2726498E-1,1.1556219E-1],"categories":[],"categories_nodes":[],"categories_segments":[],"categories_sizes":[],"default_left":[0,0,0,0,0,0,0,0,0,0,0,0,0,0,0,0,0,0,0,0,0,0,0,0,0],"id":4,"left_children":[1,3,5,7,9,-1,11,13,15,17,19,21,23,-1,-1,-1,-1,-1,-1,-1,-1,-1,-1,-1,-1],"loss_changes":[1.6219052E3,1.2064034E3,1.9351855E2,6.535305E2,9.1194104E2,0E0,2.038722E2,1.8734235E2,3.2279077E2,4.0549927E2,1.7641357E1,2.0691504E2,1.0092084E2,0E0,0E0,0E0,0E0,0E0,0E0,0E0,0E0,0E0,0E0,0E0,0E0],"parents":[2147483647,0,0,1,1,2,2,3,3,4,4,6,6,7,7,8,8,9,9,10,10,11,11,12,12],"right_children":[2,4,6,8,10,-1,12,14,16,18,20,22,24,-1,-1,-1,-1,-1,-1,-1,-1,-1,-1,-1,-1],"split_conditions":[1.49E2,2E0,1.54E2,1.1E2,1E0,-1.6898228E-1,3.12E2,1E0,8.660254E-1,-5E-1,-2.4492937E-16,6.123234E-17,1E0,3.5389278E-2,-1.5783614E-2,1.6922351E-4,1.3285251E-1,-3.580567E-2,-1.0143282E-4,-1.0889311E-1,1.4326338E-1,-6.0057588E-2,-3.919623E-3,-1.2726498E-1,1.1556219E-1],"split_indices":[0,1,0,0,2,0,0,3,6,6,6,7,2,0,0,0,0,0,0,0,0,0,0,0,0],"split_type":[0,0,0,0,0,0,0,0,0,0,0,0,0,0,0,0,0,0,0,0,0,0,0,0,0],"sum_hessian":[2.9741943E4,2.564893E4,4.0930132E3,8.058098E3,1.7590832E4,1.5168005E2,3.941333E3,6.8321514E3,1.2259468E3,1.7179922E4,4.109104E2,3.494993E3,4.4634018E2,6.0208657E3,8.112854E2,2.2439453E2,1.0015523E3,4.2139473E3,1.2965975E4,2.1130834E0,4.0879733E2,2.6186367E3,8.7635626E2,4.2926123E2,1.7078947E1],"tree_param":{"num_deleted":"0","num_feature":"8","num_nodes":"25","size_leaf_vector":"1"}},{"base_weights":[1.971151E-4,9.3051374E-2,-4.8635232E-1,2.6699156E-1,-1.3440408E-1,-4.2467043E-1,-1.1036408E0,6.7390497E-3,4.8106474E-1,2.1179424E-1,-2.1898197E-1,-6.154177E-1,-2.8307286E-1,-1.194001E0,1.069288E0,-3.8356388E-3,1.3849996E-1,3.426972E-2,1.1707079E-1,2.6239634E-2,-2.0175202E-1,-7.304523E-3,-4.5842495E-2,-4.7649246E-2,-1.17787324E-1,-4.165713E-2,2.9841503E-2,-1.445604E-1,-7.572939E-2,-1.0860362E-1,1.3666847E-1],"categories":[],"categories_nodes":[],"categories_segments":[],"categories_sizes":[],"default_left":[0,0,0,0,0,0,0,0,0,0,0,0,0,0,0,0,0,0,0,0,0,0,0,0,0,0,0,0,0,0,0],"id":5,"left_children":[1,3,5,7,9,11,13,15,17,19,21,23,25,27,29,-1,-1,-1,-1,-1,-1,-1,-1,-1,-1,-1,-1,-1,-1,-1,-1],"loss_changes":[1.337599E3,9.8368256E2,1.8019202E2,7.849323E2,3.1553137E2,1.1638129E2,8.578839E1,3.9532477E2,7.372533E2,2.3922597E2,3.0256134E2,1.4303851E2,1.9253514E2,4.4362305E1,1.2837301E1,0E0,0E0,0E0,0E0,0E0,0E0,0E0,0E0,0E0,0E0,0E0,0E0,0E0,0E0,0E0,0E0],"parents":[2147483647,0,0,1,1,2,2,3,3,4,4,5,5,6,6,7,7,8,8,9,9,10,10,11,11,12,12,13,13,14,14],"right_children":[2,4,6,8,10,12,14,16,18,20,22,24,26,28,30,-1,-1,-1,-1,-1,-1,-1,-1,-1,-1,-1,-1,-1,-1,-1,-1],"split_conditions":[1.35E2,1E0,3.12E2,5E-1,2E0,1E0,1E0,1E0,1.16E2,1E0,4.5E1,2.36E2,5E-1,1.2246469E-16,3.42E2,-3.8356388E-3,1.3849996E-1,3.426972E-2,1.1707079E-1,2.6239634E-2,-2.0175202E-1,-7.304523E-3,-4.5842495E-2,-4.7649246E-2,-1.17787324E-1,-4.165713E-2,2.9841503E-2,-1.445604E-1,-7.572939E-2,-1.0860362E-1,1.3666847E-1],"split_indices":[0,5,0,6,1,5,2,2,0,4,0,0,7,6,0,0,0,0,0,0,0,0,0,0,0,0,0,0,0,0,0],"split_type":[0,0,0,0,0,0,0,0,0,0,0,0,0,0,0,0,0,0,0,0,0,0,0,0,0,0,0,0,0,0,0],"sum_hessian":[2.9605184E4,2.4861387E4,4.743798E3,1.4087892E4,1.0773494E4,4.314376E3,4.294215E2,6.358628E3,7.7292637E3,2.1149546E3,8.65854E3,1.8367406E3,2.4776355E3,4.127097E2,1.6711819E1,6.1581123E3,2.0051567E2,6.4388853E3,1.2903783E3,2.0688765E3,4.6078102E1,5.380509E3,3.2780308E3,1.4744113E3,3.6232928E2,2.0152554E3,4.6238025E2,2.6038312E2,1.5232657E2,1.704801E0,1.5007019E1],"tree_param":{"num_deleted":"0","num_feature":"8","num_nodes":"31","size_leaf_vector":"1"}},{"base_weights":[2.1234853E-4,7.6950826E-2,-4.890551E-1,3.491449E-1,-4.6423785E-2,-1.5602389E-1,-4.4843322E-1,2.4607679E-1,9.603971E-1,-7.5383484E-2,1.2903804E0,-3.7729362E-1,-1.0419015E0,2.5705626E-2,-1.855226E-1,2.9340942E-4,1.1931852E-1,5.7287416E-3,-2.3208514E-2,-1.0961058E-1,1.3070276E-1,-4.9995523E-2,-1.611287E-3,-1.1275642E-1,1.00074165E-1],"categories":[],"categories_nodes":[],"categories_segments":[],"categories_sizes":[],"default_left":[0,0,0,0,0,0,0,0,0,0,0,0,0,0,0,0,0,0,0,0,0,0,0,0,0],"id":6,"left_children":[1,3,5,7,9,-1,11,13,15,17,19,21,23,-1,-1,-1,-1,-1,-1,-1,-1,-1,-1,-1,-1],"loss_changes":[1.1064297E3,8.554651E2,1.7315253E2,5.003106E2,6.7872266E2,0E0,1.6218384E2,1.5736285E2,2.554331E2,3.5673834E2,1.620166E1,1.5240182E2,7.315317E1,0E0,0E0,0E0,0E0,0E0,0E0,0E0,0E0,0E0,0E0,0E0,0E0],"parents":[2147483647,0,0,1,1,2,2,3,3,4,4,6,6,7,7,8,8,9,9,10,10,11,11,12,12],"right_children":[2,4,6,8,10,-1,12,14,16,18,20,22,24,-1,-1,-1,-1,-1,-1,-1,-1,-1,-1,-1,-1],"split_conditions":[1.49E2,2E0,1.54E2,1.1E2,1E0,-1.5602389E-1,3.12E2,3E0,8.660254E-1,3.6E1,-2.4492937E-16,6.123234E-17,1E0,2.5705626E-2,-1.855226E-1,2.9340942E-4,1.1931852E-1,5.7287416E-3,-2.3208514E-2,-1.0961058E-1,1.3070276E-1,-4.9995523E-2,-1.611287E-3,-1.1275642E-1,1.00074165E-1],"split_indices":[0,1,0,0,2,0,0,5,6,0,6,7,2,0,0,0,0,0,0,0,0,0,0,0,0],"split_type":[0,0,0,0,0,0,0,0,0,0,0,0,0,0,0,0,0,0,0,0,0,0,0,0,0],"sum_hessian":[2.9466924E4,2.5472559E4,3.9943655E3,7.9441104E3,1.752845E4,1.4457474E2,3.8497908E3,6.799068E3,1.1450424E3,1.71577E4,3.707502E2,3.43917E3,4.106208E2,6.7645996E3,3.4467945E1,2.241442E2,9.208982E2,9.291617E3,7.866081E3,2.1191123E0,3.686311E2,2.5669998E3,8.721702E2,3.9452356E2,1.6097218E1],"tree_param":{"num_deleted":"0","num_feature":"8","num_nodes":"25","size_leaf_vector":"1"}},{"base_weights":[2.510689E-4,6.967532E-2,-4.466208E-1,3.1714657E-1,-4.177822E-2,-1.4783202E-1,-4.088876E-1,2.2836848E-1,9.461747E-1,-6.788466E-2,1.2383097E0,-1.0173373E0,-3.429698E-1,6.5179192E-3,3.663896E-2,-5.396438E-3,1.1726687E-1,-3.0220155E-2,8.1030524E-4,-1.0430042E-1,1.2548123E-1,-5.735579E-2,-1.43113E-1,-5.672148E-2,-1.5985211E-2],"categories":[],"categories_nodes":[],"categories_segments":[],"categories_sizes":[],"default_left":[0,0,0,0,0,0,0,0,0,0,0,0,0,0,0,0,0,0,0,0,0,0,0,0,0],"id":7,"left_children":[1,3,5,7,9,-1,11,13,15,17,19,21,23,-1,-1,-1,-1,-1,-1,-1,-1,-1,-1,-1,-1],"loss_changes":[9.096777E2,7.000101E2,1.5288647E2,4.3988263E2,5.8488513E2,0E0,1.5226367E2,1.5555734E2,2.2078662E2,3.053705E2,1.4477966E1,6.738553E1,1.4094705E2,0E0,0E0,0E0,0E0,0E0,0E0,0E0,0E0,0E0,0E0,0E0,0E0],"parents":[2147483647,0,0,1,1,2,2,3,3,4,4,6,6,7,7,8,8,9,9,10,10,11,11,12,12],"right_children":[2,4,6,8,10,-1,12,14,16,18,20,22,24,-1,-1,-1,-1,-1,-1,-1,-1,-1,-1,-1,-1],"split_conditions":[1.49E2,2E0,1.54E2,1.16E2,1E0,-1.4783202E-1,-8.660254E-1,8E0,8.660254E-1,-5E-1,-2.4492937E-16,2.23E2,-5E-1,6.5179192E-3,3.663896E-2,-5.396438E-3,1.1726687E-1,-3.0220155E-2,8.1030524E-4,-1.0430042E-1,1.2548123E-1,-5.735579E-2,-1.43113E-1,-5.672148E-2,-1.5985211E-2],"split_indices":[0,1,0,0,2,0,6,0,6,6,6,0,7,0,0,0,0,0,0,0,0,0,0,0,0],"split_type":[0,0,0,0,0,0,0,0,0,0,0,0,0,0,0,0,0,0,0,0,0,0,0,0,0],"sum_hessian":[2.9319979E4,2.537817E4,3.941808E3,7.879871E3,1.7498299E4,1.3773332E2,3.804075E3,6.906485E3,9.7338617E2,1.7149494E4,3.488042E2,3.7042822E2,3.4336467E3,3.1653757E3,3.7411094E3,1.7987341E2,7.9351276E2,4.198857E3,1.2950637E4,2.058321E0,3.4674588E2,1.7988905E2,1.9053917E2,1.5425502E3,1.8910964E3],"tree_param":{"num_deleted":"0","num_feature":"8","num_nodes":"25","size_leaf_vector":"1"}},{"base_weights":[2.87812E-4,6.3115165E-2,-4.0757978E-1,2.0121865E-1,-1.1182494E-1,-1.4114241E-1,-3.7246558E-1,-1.5807446E-2,3.873657E-1,1.6194993E-1,-1.7685458E-1,-3.0655035E-1,-9.5264214E-1,-4.878081E-3,1.2308544E-1,4.327029E-2,-7.954993E-2,2.0664735E-2,-1.8492092E-1,1.1430419E-2,-2.529178E-2,-4.009036E-2,4.739228E-3,-1.03623085E-1,9.433047E-2],"categories":[],"categories_nodes":[],"categories_segments":[],"categories_sizes":[],"default_left":[0,0,0,0,0,0,0,0,0,0,0,0,0,0,0,0,0,0,0,0,0,0,0,0,0],"id":8,"left_children":[1,3,5,7,9,-1,11,13,15,17,19,21,23,-1,-1,-1,-1,-1,-1,-1,-1,-1,-1,-1,-1],"loss_changes":[7.476743E2,6.1084924E2,1.3675275E2,5.708112E2,1.9861703E2,0E0,1.4366223E2,2.682608E2,4.0822375E2,1.9288872E2,1.9965659E2,1.129527E2,6.1764008E1,0E0,0E0,0E0,0E0,0E0,0E0,0E0,0E0,0E0,0E0,0E0,0E0],"parents":[2147483647,0,0,1,1,2,2,3,3,4,4,6,6,7,7,8,8,9,9,10,10,11,11,12,12],"right_children":[2,4,6,8,10,-1,12,14,16,18,20,22,24,-1,-1,-1,-1,-1,-1,-1,-1,-1,-1,-1,-1],"split_conditions":[1.49E2,1E0,1.54E2,5E-1,2E0,-1.4114241E-1,3.12E2,1E0,1E0,1E0,6E0,5E-1,1E0,-4.878081E-3,1.2308544E-1,4.327029E-2,-7.954993E-2,2.0664735E-2,-1.8492092E-1,1.1430419E-2,-2.529178E-2,-4.009036E-2,4.739228E-3,-1.03623085E-1,9.433047E-2],"split_indices":[0,5,0,6,1,0,0,2,3,4,0,7,2,0,0,0,0,0,0,0,0,0,0,0,0],"split_type":[0,0,0,0,0,0,0,0,0,0,0,0,0,0,0,0,0,0,0,0,0,0,0,0,0],"sum_hessian":[2.9175252E4,2.5281734E4,3.8935178E3,1.4128266E4,1.1153469E4,1.302664E2,3.7632515E3,6.523513E3,7.6047524E3,2.1404941E3,9.012975E3,3.3806914E3,3.8256006E2,6.3563525E3,1.6716035E2,7.3246455E3,2.8010696E2,2.0948345E3,4.5659805E1,1.8667661E3,7.1462085E3,2.6690496E3,7.1164197E2,3.668402E2,1.5719833E1],"tree_param":{"num_deleted":"0","num_feature":"8","num_nodes":"25","size_leaf_vector":"1"}},{"base_weights":[2.3183173E-4,5.7015035E-2,-3.7236416E-1,2.702636E-1,-3.811221E-2,-1.3559385E-1,-3.396145E-1,1.8989076E-1,8.729898E-1,-6.010149E-2,1.1639107E0,-2.1380329E-1,-6.284862E-1,3.6950975E-3,3.1549565E-2,-5.904203E-3,1.1009963E-1,6.527763E-3,-1.8688789E-2,-1.04699574E-1,1.18191354E-1,-1.0270565E-1,-1.3621616E-2,-1.0223975E-1,-3.3109542E-2],"categories":[],"categories_nodes":[],"categories_segments":[],"categories_sizes":[],"default_left":[0,0,0,0,0,0,0,0,0,0,0,0,0,0,0,0,0,0,0,0,0,0,0,0,0],"id":9,"left_children":[1,3,5,7,9,-1,11,13,15,17,19,21,23,-1,-1,-1,-1,-1,-1,-1,-1,-1,-1,-1,-1],"loss_changes":[6.1471094E2,5.114577E2,1.2330676E2,3.7659955E2,4.6092197E2,0E0,1.3505637E2,1.3184004E2,1.9447266E2,2.7221127E2,1.3706726E1,1.6345914E2,1.3180722E2,0E0,0E0,0E0,0E0,0E0,0E0,0E0,0E0,0E0,0E0,0E0,0E0],"parents":[2147483647,0,0,1,1,2,2,3,3,4,4,6,6,7,7,8,8,9,9,10,10,11,11,12,12],"right_children":[2,4,6,8,10,-1,12,14,16,18,20,22,24,-1,-1,-1,-1,-1,-1,-1,-1,-1,-1,-1,-1],"split_conditions":[1.49E2,2E0,1.54E2,1.16E2,1E0,-1.3559385E-1,2.41E2,5E-1,8.660254E-1,3.1E1,-2.4492937E-16,-8.660254E-1,1E0,3.6950975E-3,3.1549565E-2,-5.904203E-3,1.1009963E-1,6.527763E-3,-1.8688789E-2,-1.04699574E-1,1.18191354E-1,-1.0270565E-1,-1.3621616E-2,-1.0223975E-1,-3.3109542E-2],"split_indices":[0,1,0,0,2,0,0,6,6,0,6,7,5,0,0,0,0,0,0,0,0,0,0,0,0],"split_type":[0,0,0,0,0,0,0,0,0,0,0,0,0,0,0,0,0,0,0,0,0,0,0,0,0],"sum_hessian":[2.9052459E4,2.5211156E4,3.8413042E3,7.7765264E3,1.7434629E4,1.22478935E2,3.7188252E3,6.862707E3,9.1381915E2,1.7122352E4,3.1227884E2,2.591778E3,1.1270472E3,3.0952024E3,3.7675046E3,1.7975757E2,7.340616E2,8.609197E3,8.513153E3,2.060597E0,3.1021823E2,2.2466331E2,2.3671147E3,4.83795E2,6.4325226E2],"tree_param":{"num_deleted":"0","num_feature":"8","num_nodes":"25","size_leaf_vector":"1"}},{"base_weights":[2.651308E-4,5.165597E-2,-3.3966663E-1,-2.0313516E-1,1.2384923E-1,-9.067395E-1,-2.821753E-1,1.45706E-1,-3.964036E-1,2.6014283E-1,-5.83881E-2,-5.0035053E-1,-1.334191E-1,-1.3101624E-1,-2.4801223E-1,1.4294693E-3,9.727842E-2,-6.447963E-2,2.8138785E-2,2.9563988E-2,-5.7339884E-2,-1.3127889E-2,2.9623425E-2,-1.0286496E-1,6.692033E-2,-2.1358542E-2,-1.2920181E-1],"categories":[],"categories_nodes":[],"categories_segments":[],"categories_sizes":[],"default_left":[0,0,0,0,0,0,0,0,0,0,0,0,0,0,0,0,0,0,0,0,0,0,0,0,0,0,0],"id":10,"left_children":[1,3,5,7,9,11,13,15,17,19,21,23,-1,-1,25,-1,-1,-1,-1,-1,-1,-1,-1,-1,-1,-1,-1],"loss_changes":[5.0517087E2,4.6208527E2,1.23553314E2,3.7400085E2,4.862E2,5.997867E1,1.20818726E2,2.1498221E2,6.0111304E2,3.315302E2,2.1655667E2,1.12257675E2,0E0,0E0,1.1976189E2,0E0,0E0,0E0,0E0,0E0,0E0,0E0,0E0,0E0,0E0,0E0,0E0],"parents":[2147483647,0,0,1,1,2,2,3,3,4,4,5,5,6,6,7,7,8,8,9,9,10,10,11,11,14,14],"right_children":[2,4,6,8,10,12,14,16,18,20,22,24,-1,-1,26,-1,-1,-1,-1,-1,-1,-1,-1,-1,-1,-1,-1],"split_conditions":[1.49E2,-5E-1,-8.660254E-1,9E0,1E0,2.23E2,1.54E2,1E0,9.3E1,1E0,3E0,2.12E2,-1.334191E-1,-1.3101624E-1,3.86E2,1.4294693E-3,9.727842E-2,-6.447963E-2,2.8138785E-2,2.9563988E-2,-5.7339884E-2,-1.3127889E-2,2.9623425E-2,-1.0286496E-1,6.692033E-2,-2.1358542E-2,-1.2920181E-1],"split_indices":[0,6,6,0,5,0,0,3,0,3,1,0,0,0,0,0,0,0,0,0,0,0,0,0,0,0,0],"split_type":[0,0,0,0,0,0,0,0,0,0,0,0,0,0,0,0,0,0,0,0,0,0,0,0,0,0,0],"sum_hessian":[2.8915502E4,2.511888E4,3.796621E3,5.545472E3,1.9573408E4,3.4812036E2,3.4485007E3,1.9771138E3,3.5683584E3,1.1198058E4,8.375351E3,1.795696E2,1.6855078E2,1.0971653E2,3.3387844E3,1.7069244E3,2.7018942E2,2.6113984E3,9.569599E2,1.0741277E4,4.5678076E2,6.9478794E3,1.4274708E3,1.2377822E2,5.5791367E1,3.2333665E3,1.05417915E2],"tree_param":{"num_deleted":"0","num_feature":"8","num_nodes":"27","size_leaf_vector":"1"}},{"base_weights":[1.5982782E-4,1.932486E-1,-7.617235E-2,2.2584504E-1,-1.156096E0,-9.249153E-2,9.5737785E-1,8.08941E-2,4.614647E-1,-1.4719653E0,2.2649696E-1,1.24185635E-2,-2.5118133E-1,1.1128151E0,-1.6467324E-1,3.3128187E-2,-1.0832445E-2,9.068462E-3,7.920604E-2,-1.548958E-1,-1.2552863E-1,-2.3030588E-2,8.96608E-3,-8.735679E-2,-1.8077198E-2,6.627107E-2,1.13936834E-1],"categories":[],"categories_nodes":[],"categories_segments":[],"categories_sizes":[],"default_left":[0,0,0,0,0,0,0,0,0,0,0,0,0,0,0,0,0,0,0,0,0,0,0,0,0,0,0],"id":11,"left_children":[1,3,5,7,9,11,13,15,17,19,-1,21,23,25,-1,-1,-1,-1,-1,-1,-1,-1,-1,-1,-1,-1,-1],"loss_changes":[4.2485602E2,3.5946936E2,3.485322E2,2.7233615E2,2.1167322E2,3.3860144E2,1.3184933E2,2.3402304E2,3.7223517E2,1.0102234E0,0E0,2.2959558E2,3.545604E2,2.8747559E0,0E0,0E0,0E0,0E0,0E0,0E0,0E0,0E0,0E0,0E0,0E0,0E0,0E0],"parents":[2147483647,0,0,1,1,2,2,3,3,4,4,5,5,6,6,7,7,8,8,9,9,11,11,12,12,13,13],"right_children":[2,4,6,8,10,12,14,16,18,20,-1,22,24,26,-1,-1,-1,-1,-1,-1,-1,-1,-1,-1,-1,-1,-1],"split_conditions":[2E0,2.14E2,1E0,8.660254E-1,1E0,6.6E1,8.660254E-1,-1.8369701E-16,5E-1,3.12E2,2.2649696E-1,-5E-1,7.9E1,-2.4492937E-16,-1.6467324E-1,3.3128187E-2,-1.0832445E-2,9.068462E-3,7.920604E-2,-1.548958E-1,-1.2552863E-1,-2.3030588E-2,8.96608E-3,-8.735679E-2,-1.8077198E-2,6.627107E-2,1.13936834E-1],"split_indices":[1,0,2,6,2,0,6,7,7,0,0,6,0,6,0,0,0,0,0,0,0,0,0,0,0,0,0],"split_type":[0,0,0,0,0,0,0,0,0,0,0,0,0,0,0,0,0,0,0,0,0,0,0,0,0,0,0],"sum_hessian":[2.8823516E4,8.1658267E3,2.065769E4,7.974029E3,1.9179788E2,2.0337482E4,3.2020685E2,4.937729E3,3.0362998E3,1.7610748E2,1.5690389E1,1.2243925E4,8.093557E3,3.0271094E2,1.7495914E1,2.12501E3,2.812719E3,1.4317701E3,1.6045298E3,1.25400276E2,5.070721E1,2.9552922E3,9.288633E3,8.2139484E2,7.2721626E3,1.8309135E1,2.8440182E2],"tree_param":{"num_deleted":"0","num_feature":"8","num_nodes":"27","size_leaf_vector":"1"}},{"base_weights":[1.988765E-4,4.8628103E-2,-2.6594654E-1,1.6001835E-1,-9.330231E-2,-8.3943105E-1,-2.1307133E-1,-1.4391275E-1,2.3556468E-1,-1.0950288E-2,-2.516644E-1,-2.0005451E-1,-1.5029628E0,6.9592404E-1,-2.916653E-1,-2.1655912E-2,7.980018E-2,2.694166E-2,-5.3731807E-2,-7.6899603E-3,3.3233084E-2,-4.505716E-2,2.0725573E-3,1.0497164E-2,-1.7785658E-1,-1.8302153E-1,2.8362526E-2,7.513141E-2,-1.667373E-1,-8.3574794E-2,-2.3868755E-2],"categories":[],"categories_nodes":[],"categories_segments":[],"categories_sizes":[],"default_left":[0,0,0,0,0,0,0,0,0,0,0,0,0,0,0,0,0,0,0,0,0,0,0,0,0,0,0,0,0,0,0],"id":12,"left_children":[1,3,5,7,9,11,13,15,17,19,21,23,25,27,29,-1,-1,-1,-1,-1,-1,-1,-1,-1,-1,-1,-1,-1,-1,-1,-1],"loss_changes":[3.700534E2,3.8403665E2,1.3384912E2,3.1252545E2,1.3930038E2,1.5785043E2,2.894136E2,1.8561221E2,2.8534552E2,1.591401E2,1.9799985E2,9.215058E1,1.0738504E2,4.3463562E1,1.0722156E2,0E0,0E0,0E0,0E0,0E0,0E0,0E0,0E0,0E0,0E0,0E0,0E0,0E0,0E0,0E0,0E0],"parents":[2147483647,0,0,1,1,2,2,3,3,4,4,5,5,6,6,7,7,8,8,9,9,10,10,11,11,12,12,13,13,14,14],"right_children":[2,4,6,8,10,12,14,16,18,20,22,24,26,28,30,-1,-1,-1,-1,-1,-1,-1,-1,-1,-1,-1,-1,-1,-1,-1,-1],"split_conditions":[1.35E2,1E0,1.44E2,-5E-1,4.5E1,-5E-1,1.49E2,1E0,1E0,3E0,9.2E1,5E-1,1E0,8.660254E-1,-8.660254E-1,-2.1655912E-2,7.980018E-2,2.694166E-2,-5.3731807E-2,-7.6899603E-3,3.3233084E-2,-4.505716E-2,2.0725573E-3,1.0497164E-2,-1.7785658E-1,-1.8302153E-1,2.8362526E-2,7.513141E-2,-1.667373E-1,-8.3574794E-2,-2.3868755E-2],"split_indices":[0,5,0,6,0,7,0,3,3,1,0,6,7,7,6,0,0,0,0,0,0,0,0,0,0,0,0,0,0,0,0],"split_type":[0,0,0,0,0,0,0,0,0,0,0,0,0,0,0,0,0,0,0,0,0,0,0,0,0,0,0,0,0,0,0],"sum_hessian":[2.8708309E4,2.4289314E4,4.4189946E3,1.3608736E4,1.0680577E4,3.7178104E2,4.0472136E3,2.7090457E3,1.089969E4,7.02729E3,3.653287E3,1.8999963E2,1.8178139E2,3.214587E2,3.725755E3,2.5157827E3,1.9326288E2,1.0442946E4,4.567448E2,5.8954614E3,1.1318282E3,2.1110684E3,1.5422186E3,1.600128E2,2.9986832E1,1.5361841E2,2.816298E1,3.1476352E2,6.6952157E0,3.292788E2,3.396476E3],"tree_param":{"num_deleted":"0","num_feature":"8","num_nodes":"31","size_leaf_vector":"1"}},{"base_weights":[1.3061019E-4,1.7077358E-1,-6.6981226E-2,1.9939023E-1,-1.0782416E0,-8.1375E-2,9.1793245E-1,5.8782093E-2,4.2600194E-1,-1.3957733E0,1.9786346E-1,3.8676128E-2,-1.8248309E-1,1.0705522E0,-1.5324526E-1,9.745028E-3,-6.8124E-2,-1.4103626E-1,4.83712E-2,-1.4561501E-1,-1.2142358E-1,1.4948311E-2,-6.68415E-3,-1.7099215E-2,-1.2491703E-1,6.288647E-2,1.09883405E-1],"categories":[],"categories_nodes":[],"categories_segments":[],"categories_sizes":[],"default_left":[0,0,0,0,0,0,0,0,0,0,0,0,0,0,0,0,0,0,0,0,0,0,0,0,0,0,0],"id":13,"left_children":[1,3,5,7,9,11,13,15,17,19,-1,21,23,25,-1,-1,-1,-1,-1,-1,-1,-1,-1,-1,-1,-1,-1],"loss_changes":[3.2779562E2,2.8899823E2,2.913125E2,2.5167694E2,1.7856944E2,2.4578658E2,1.1233223E2,1.3959134E2,3.2120996E2,3.6712646E-2,0E0,1.0825434E2,1.3451346E2,2.796936E0,0E0,0E0,0E0,0E0,0E0,0E0,0E0,0E0,0E0,0E0,0E0,0E0,0E0],"parents":[2147483647,0,0,1,1,2,2,3,3,4,4,5,5,6,6,7,7,8,8,9,9,11,11,12,12,13,13],"right_children":[2,4,6,8,10,12,14,16,18,20,-1,22,24,26,-1,-1,-1,-1,-1,-1,-1,-1,-1,-1,-1,-1,-1],"split_conditions":[2E0,2.14E2,1E0,3.1E1,1E0,3.6E1,8.660254E-1,1E0,-8.660254E-1,3.12E2,1.9786346E-1,1E0,3.63E2,-2.4492937E-16,-1.5324526E-1,9.745028E-3,-6.8124E-2,-1.4103626E-1,4.83712E-2,-1.4561501E-1,-1.2142358E-1,1.4948311E-2,-6.68415E-3,-1.7099215E-2,-1.2491703E-1,6.288647E-2,1.09883405E-1],"split_indices":[1,0,2,0,2,0,6,7,6,0,0,5,0,6,0,0,0,0,0,0,0,0,0,0,0,0,0],"split_type":[0,0,0,0,0,0,0,0,0,0,0,0,0,0,0,0,0,0,0,0,0,0,0,0,0,0,0],"sum_hessian":[2.8621033E4,8.078518E3,2.0542516E4,7.8983955E3,1.8012273E2,2.024753E4,2.9498514E2,4.8748843E3,3.023511E3,1.6366544E2,1.6457277E1,9.256912E3,1.0990617E4,2.7821964E2,1.6765524E1,4.633633E3,2.4125171E2,9.140841E1,2.9321025E3,1.1754908E2,4.611636E1,4.515082E3,4.74183E3,1.087463E4,1.1598734E2,1.8140984E1,2.6007864E2],"tree_param":{"num_deleted":"0","num_feature":"8","num_nodes":"27","size_leaf_vector":"1"}},{"base_weights":[1.2054295E-4,1.5463819E-1,-6.0450297E-2,-4.6343192E-2,3.1244275E-1,-7.34231E-2,8.8787264E-1,1.796786E-3,-1.3377969E-1,3.978909E-1,-6.7472637E-1,7.644249E-3,-1.9726664E-1,1.037304E0,-1.4526126E-1,4.4364273E-3,-5.8088567E-2,4.7211427E-2,-6.781501E-3,-4.2901516E-2,-1.990491E-1,-4.528954E-3,2.588256E-2,-7.628315E-2,-1.3350678E-2,5.7713892E-2,1.0688628E-1],"categories":[],"categories_nodes":[],"categories_segments":[],"categories_sizes":[],"default_left":[0,0,0,0,0,0,0,0,0,0,0,0,0,0,0,0,0,0,0,0,0,0,0,0,0,0,0],"id":14,"left_children":[1,3,5,7,9,11,13,15,-1,17,19,21,23,25,-1,-1,-1,-1,-1,-1,-1,-1,-1,-1,-1,-1,-1],"loss_changes":[2.668774E2,2.5469272E2,2.5207724E2,2.1963284E2,3.7970908E2,2.0289565E2,9.821777E1,8.452462E1,0E0,1.4315668E2,1.1511984E2,1.6242184E2,2.8821033E2,3.1662598E0,0E0,0E0,0E0,0E0,0E0,0E0,0E0,0E0,0E0,0E0,0E0,0E0,0E0],"parents":[2147483647,0,0,1,1,2,2,3,3,4,4,5,5,6,6,7,7,9,9,10,10,11,11,12,12,13,13],"right_children":[2,4,6,8,10,12,14,16,-1,18,20,22,24,26,-1,-1,-1,-1,-1,-1,-1,-1,-1,-1,-1,-1,-1],"split_conditions":[2E0,5E-1,1E0,2.14E2,1E0,6.6E1,8.660254E-1,2E0,-1.3377969E-1,8.660254E-1,1E0,3E0,7.9E1,-2.4492937E-16,-1.4526126E-1,4.4364273E-3,-5.8088567E-2,4.7211427E-2,-6.781501E-3,-4.2901516E-2,-1.990491E-1,-4.528954E-3,2.588256E-2,-7.628315E-2,-1.3350678E-2,5.7713892E-2,1.0688628E-1],"split_indices":[1,6,2,0,3,0,6,5,0,7,6,1,0,6,0,0,0,0,0,0,0,0,0,0,0,0,0],"split_type":[0,0,0,0,0,0,0,0,0,0,0,0,0,0,0,0,0,0,0,0,0,0,0,0,0,0,0],"sum_hessian":[2.851279E4,8.029019E3,2.048377E4,3.5317085E3,4.497311E3,2.0208248E4,2.755209E2,3.405755E3,1.2595364E2,4.13959E3,3.5772095E2,1.2213979E4,7.9942705E3,2.59509E2,1.60119E1,3.1747493E3,2.3100539E2,3.5705142E3,5.6907587E2,3.0254797E2,5.5172977E1,1.008871E4,2.1252686E3,8.0882654E2,7.185444E3,1.7893108E1,2.416159E2],"tree_param":{"num_deleted":"0","num_feature":"8","num_nodes":"27","size_leaf_vector":"1"}},{"base_weights":[1.262512E-4,2.094827E-2,-3.884291E-1,1.6043551E-1,-3.6104254E-2,-7.304103E-1,-1.5222049E-1,-2.9932575E-2,2.8602836E-1,-4.763045E-2,8.632012E-1,-8.5162634E-1,1.3069763E0,-3.609361E-1,5.09696E-1,1.0419484E-2,-4.768638E-2,3.397199E-2,-8.354818E-2,4.043699E-3,-1.20901195E-2,1.0197955E-1,-1.3860351E-1,-9.388117E-2,1.2989059E-1,1.7622638E-1,7.49653E-2,-2.2818593E-2,-1.21821105E-1,-1.4821771E-1,6.844258E-2],"categories":[],"categories_nodes":[],"categories_segments":[],"categories_sizes":[],"default_left":[0,0,0,0,0,0,0,0,0,0,0,0,0,0,0,0,0,0,0,0,0,0,0,0,0,0,0,0,0,0,0],"id":15,"left_children":[1,3,5,7,9,11,13,15,17,19,21,23,25,27,29,-1,-1,-1,-1,-1,-1,-1,-1,-1,-1,-1,-1,-1,-1,-1,-1],"loss_changes":[2.2988007E2,2.1462268E2,1.1662961E2,1.8718375E2,1.9844511E2,1.4685669E2,1.1844887E2,1.8664696E2,2.8431598E2,1.219583E2,8.67451E1,1.05768036E2,7.187866E0,7.385512E1,7.258316E1,0E0,0E0,0E0,0E0,0E0,0E0,0E0,0E0,0E0,0E0,0E0,0E0,0E0,0E0,0E0,0E0],"parents":[2147483647,0,0,1,1,2,2,3,3,4,4,5,5,6,6,7,7,8,8,9,9,10,10,11,11,12,12,13,13,14,14],"right_children":[2,4,6,8,10,12,14,16,18,20,22,24,26,28,30,-1,-1,-1,-1,-1,-1,-1,-1,-1,-1,-1,-1,-1,-1,-1,-1],"split_conditions":[2.17E2,2E0,1E0,8E0,1E0,1E0,5E-1,8.660254E-1,2E0,3.1E1,8.660254E-1,4E0,2.31E2,3.42E2,2.26E2,1.0419484E-2,-4.768638E-2,3.397199E-2,-8.354818E-2,4.043699E-3,-1.20901195E-2,1.0197955E-1,-1.3860351E-1,-9.388117E-2,1.2989059E-1,1.7622638E-1,7.49653E-2,-2.2818593E-2,-1.21821105E-1,-1.4821771E-1,6.844258E-2],"split_indices":[0,1,5,0,2,2,6,7,5,0,6,1,0,0,0,0,0,0,0,0,0,0,0,0,0,0,0,0,0,0,0],"split_type":[0,0,0,0,0,0,0,0,0,0,0,0,0,0,0,0,0,0,0,0,0,0,0,0,0,0,0,0,0,0,0],"sum_hessian":[2.841155E4,2.6967361E4,1.4441888E3,7.8276914E3,1.913967E4,5.8914154E2,8.5504724E2,3.11177E3,4.7159214E3,1.88984E4,2.4126958E2,5.566077E2,3.2533844E1,6.5041345E2,2.0463377E2,2.394061E3,7.1770886E2,4.5011304E3,2.1479143E2,8.582796E3,1.0315605E4,2.2607648E2,1.5193091E1,5.354628E2,2.1144909E1,1.6716125E1,1.5817719E1,5.642974E2,8.611604E1,1.5899631E1,1.8873415E2],"tree_param":{"num_deleted":"0","num_feature":"8","num_nodes":"31","size_leaf_vector":"1"}},{"base_weights":[1.0264704E-4,3.1736255E-2,-2.1682543E-1,-1.4912419E-1,8.348064E-2,-1.252668E-1,-1.8606052E-1,1.24407865E-1,-3.19508E-1,1.0798243E-1,-4.4500303E-1,-1.3621886E-1,-7.2394454E-1,2.5156785E-3,7.962391E-2,-5.6264587E-2,3.0540911E-2,2.0105299E-2,-1.440381E-3,5.9752804E-3,-6.864684E-2,-2.2504361E-2,1.8347261E-2,-1.0217323E-1,-2.7719183E-2],"categories":[],"categories_nodes":[],"categories_segments":[],"categories_sizes":[],"default_left":[0,0,0,0,0,0,0,0,0,0,0,0,0,0,0,0,0,0,0,0,0,0,0,0,0],"id":16,"left_children":[1,3,5,7,9,-1,11,13,15,17,19,21,23,-1,-1,-1,-1,-1,-1,-1,-1,-1,-1,-1,-1],"loss_changes":[1.9430276E2,2.3127371E2,1.1460306E2,2.5625525E2,2.488562E2,0E0,9.375372E1,1.4072726E2,5.1491125E2,2.0918146E2,1.0383095E2,9.105565E1,3.918219E1,0E0,0E0,0E0,0E0,0E0,0E0,0E0,0E0,0E0,0E0,0E0,0E0],"parents":[2147483647,0,0,1,1,2,2,3,3,4,4,6,6,7,7,8,8,9,9,10,10,11,11,12,12],"right_children":[2,4,6,8,10,-1,12,14,16,18,20,22,24,-1,-1,-1,-1,-1,-1,-1,-1,-1,-1,-1,-1],"split_conditions":[1.49E2,-5E-1,1.54E2,1.1E1,1E0,-1.252668E-1,3.12E2,1E0,9.3E1,1E0,1.2246469E-16,5E-1,1.2246469E-16,2.5156785E-3,7.962391E-2,-5.6264587E-2,3.0540911E-2,2.0105299E-2,-1.440381E-3,5.9752804E-3,-6.864684E-2,-2.2504361E-2,1.8347261E-2,-1.0217323E-1,-2.7719183E-2],"split_indices":[0,6,0,0,3,0,0,3,0,5,6,7,6,0,0,0,0,0,0,0,0,0,0,0,0],"split_type":[0,0,0,0,0,0,0,0,0,0,0,0,0,0,0,0,0,0,0,0,0,0,0,0,0],"sum_hessian":[2.8312863E4,2.4710324E4,3.6025378E3,5.4965464E3,1.921378E4,1.0276492E2,3.4997727E3,2.109788E3,3.3867583E3,1.836321E4,8.505672E2,3.204124E3,2.9564874E2,1.8391273E3,2.706608E2,2.438216E3,9.4854236E2,1.0430517E4,7.9326943E3,2.7547354E2,5.750936E2,2.5076746E3,6.964494E2,1.7662827E2,1.1902048E2],"tree_param":{"num_deleted":"0","num_feature":"8","num_nodes":"25","size_leaf_vector":"1"}},{"base_weights":[3.619296E-5,-5.068197E-2,1.2149042E-1,-6.3453235E-2,9.781989E-1,-1.1500404E-1,4.7462788E-1,-3.7492834E-2,-5.10923E-1,2.3415206E-1,1.0446279E0,5.9435826E-2,-5.302624E-1,2.927878E-1,1.0706476E0,-2.1078312E-1,-3.4963381E-3,-8.980723E-2,-2.6448756E-2,-1.5581249E-1,1.1892214E-1,9.7726814E-2,1.8159218E-1,-2.3840813E-2,3.9399125E-2,-7.285639E-2,-8.4535545E-3,5.869052E-2,3.6611245E-3,1.1087668E-1,-1.6695437E-1],"categories":[],"categories_nodes":[],"categories_segments":[],"categories_sizes":[],"default_left":[0,0,0,0,0,0,0,0,0,0,0,0,0,0,0,0,0,0,0,0,0,0,0,0,0,0,0,0,0,0,0],"id":17,"left_children":[1,3,5,7,9,11,13,15,17,19,21,23,25,27,29,-1,-1,-1,-1,-1,-1,-1,-1,-1,-1,-1,-1,-1,-1,-1,-1],"loss_changes":[1.7388947E2,2.6172687E2,6.94538E2,2.2847995E2,1.1825882E1,3.6085452E2,3.6119025E2,9.729293E1,1.0266226E2,3.8322105E1,9.858215E0,3.4970633E2,1.3018631E2,1.9264923E2,8.325873E1,0E0,0E0,0E0,0E0,0E0,0E0,0E0,0E0,0E0,0E0,0E0,0E0,0E0,0E0,0E0,0E0],"parents":[2147483647,0,0,1,1,2,2,3,3,4,4,5,5,6,6,7,7,8,8,9,9,10,10,11,11,12,12,13,13,14,14],"right_children":[2,4,6,8,10,12,14,16,18,20,22,24,26,28,30,-1,-1,-1,-1,-1,-1,-1,-1,-1,-1,-1,-1,-1,-1,-1,-1],"split_conditions":[8.660254E-1,1E0,5E-1,2.23E2,-2.4492937E-16,6.6E1,1.16E2,1E0,1E0,3.42E2,2.26E2,2.4E1,1.46E2,6E0,3E0,-2.1078312E-1,-3.4963381E-3,-8.980723E-2,-2.6448756E-2,-1.5581249E-1,1.1892214E-1,9.7726814E-2,1.8159218E-1,-2.3840813E-2,3.9399125E-2,-7.285639E-2,-8.4535545E-3,5.869052E-2,3.6611245E-3,1.1087668E-1,-1.6695437E-1],"split_indices":[6,2,7,0,6,0,0,1,5,0,0,0,0,0,1,0,0,0,0,0,0,0,0,0,0,0,0,0,0,0,0],"split_type":[0,0,0,0,0,0,0,0,0,0,0,0,0,0,0,0,0,0,0,0,0,0,0,0,0,0,0,0,0,0,0],"sum_hessian":[2.8227105E4,1.9912438E4,8.314667E3,1.9669227E4,2.4321136E2,4.9801553E3,3.3345117E3,1.8591695E4,1.0775317E3,2.0305202E1,2.2290616E2,3.5075686E3,1.4725868E3,2.5561465E3,7.7836536E2,2.1671185E1,1.8570023E4,4.1808206E2,6.594497E2,6.8392615E0,1.346594E1,2.0708754E2,1.581862E1,1.8557454E3,1.6518232E3,1.0187263E3,4.5386047E2,1.1893536E3,1.3667928E3,7.682732E2,1.0092189E1],"tree_param":{"num_deleted":"0","num_feature":"8","num_nodes":"31","size_leaf_vector":"1"}},{"base_weights":[1.0896116E-4,1.1713132E-1,-4.5253515E-2,1.384577E-1,-9.757398E-1,-5.462844E-2,7.9851055E-1,2.8307766E-2,3.227167E-1,-1.2894362E-1,1.4193992E-1,2.8081426E-2,-1.2523045E-1,9.484216E-1,-1.3224612E-1,4.780306E-3,-1.1010956E-1,-1.2503493E-1,3.746028E-2,1.1661946E-3,7.229448E-2,-1.1623166E-2,-1.1702224E-1,8.0578916E-2,1.1141739E-1],"categories":[],"categories_nodes":[],"categories_segments":[],"categories_sizes":[],"default_left":[0,0,0,0,0,0,0,0,0,0,0,0,0,0,0,0,0,0,0,0,0,0,0,0,0],"id":18,"left_children":[1,3,5,7,9,11,13,15,17,-1,-1,19,21,23,-1,-1,-1,-1,-1,-1,-1,-1,-1,-1,-1],"loss_changes":[1.4934575E2,1.833094E2,1.6041968E2,1.5646683E2,1.1494838E2,1.1710073E2,7.211275E1,1.06317535E2,2.3589243E2,0E0,0E0,1.05360054E2,1.01596146E2,4.03685E0,0E0,0E0,0E0,0E0,0E0,0E0,0E0,0E0,0E0,0E0,0E0],"parents":[2147483647,0,0,1,1,2,2,3,3,4,4,5,5,6,6,7,7,8,8,11,11,12,12,13,13],"right_children":[2,4,6,8,10,12,14,16,18,-1,-1,20,22,24,-1,-1,-1,-1,-1,-1,-1,-1,-1,-1,-1],"split_conditions":[2E0,2.14E2,1E0,3.1E1,1E0,3.6E1,8.660254E-1,2.8E1,-8.660254E-1,-1.2894362E-1,1.4193992E-1,3.5E1,3.63E2,1E0,-1.3224612E-1,4.780306E-3,-1.1010956E-1,-1.2503493E-1,3.746028E-2,1.1661946E-3,7.229448E-2,-1.1623166E-2,-1.1702224E-1,8.0578916E-2,1.1141739E-1],"split_indices":[1,0,2,0,2,0,6,0,6,0,0,0,0,7,0,0,0,0,0,0,0,0,0,0,0],"split_type":[0,0,0,0,0,0,0,0,0,0,0,0,0,0,0,0,0,0,0,0,0,0,0,0,0],"sum_hessian":[2.8131729E4,7.858203E3,2.0273525E4,7.7086494E3,1.495539E2,2.005167E4,2.2185558E2,4.825263E3,2.883386E3,1.32643E2,1.6910892E1,9.234317E3,1.0817352E4,2.0772626E2,1.4129327E1,4.744326E3,8.093693E1,9.1331314E1,2.7920547E3,9.022144E3,2.1217464E2,1.0726097E4,9.125497E1,1.1480027E2,9.292598E1],"tree_param":{"num_deleted":"0","num_feature":"8","num_nodes":"25","size_leaf_vector":"1"}},{"base_weights":[9.49838E-5,-4.49357E-2,1.0836348E-1,-5.5356406E-2,9.0767056E-1,-1.0342423E-1,4.301677E-1,-3.3371083E-2,-4.4963452E-1,1.4688721E-1,9.812663E-1,5.136824E-2,-4.7403663E-1,2.6352662E-1,1.0138642E0,-4.694292E-3,3.0746803E-2,-2.3598107E-2,-8.879264E-2,-1.5043724E-1,1.0976993E-1,7.81861E-2,1.1665254E-1,-2.1693705E-2,3.5443794E-2,-6.5528356E-2,-6.6178725E-3,5.3009536E-2,3.2855687E-3,1.0511503E-1,-1.5456663E-1],"categories":[],"categories_nodes":[],"categories_segments":[],"categories_sizes":[],"default_left":[0,0,0,0,0,0,0,0,0,0,0,0,0,0,0,0,0,0,0,0,0,0,0,0,0,0,0,0,0,0,0],"id":19,"left_children":[1,3,5,7,9,11,13,15,17,19,21,23,25,27,29,-1,-1,-1,-1,-1,-1,-1,-1,-1,-1,-1,-1,-1,-1,-1,-1],"loss_changes":[1.367564E2,1.9670744E2,5.616071E2,1.698605E2,1.1861603E1,2.8514487E2,3.178537E2,8.588471E1,9.670732E1,3.3192135E1,6.30394E0,2.852234E2,1.0820535E2,1.5650838E2,7.091095E1,0E0,0E0,0E0,0E0,0E0,0E0,0E0,0E0,0E0,0E0,0E0,0E0,0E0,0E0,0E0,0E0],"parents":[2147483647,0,0,1,1,2,2,3,3,4,4,5,5,6,6,7,7,8,8,9,9,10,10,11,11,12,12,13,13,14,14],"right_children":[2,4,6,8,10,12,14,16,18,20,22,24,26,28,30,-1,-1,-1,-1,-1,-1,-1,-1,-1,-1,-1,-1,-1,-1,-1,-1],"split_conditions":[8.660254E-1,1E0,5E-1,2.23E2,-2.4492937E-16,6.6E1,1.16E2,4E0,-1.8369701E-16,3.42E2,9.5E1,2.4E1,1.46E2,6E0,3E0,-4.694292E-3,3.0746803E-2,-2.3598107E-2,-8.879264E-2,-1.5043724E-1,1.0976993E-1,7.81861E-2,1.1665254E-1,-2.1693705E-2,3.5443794E-2,-6.5528356E-2,-6.6178725E-3,5.3009536E-2,3.2855687E-3,1.0511503E-1,-1.5456663E-1],"split_indices":[6,2,7,0,6,0,0,1,7,0,0,0,0,0,1,0,0,0,0,0,0,0,0,0,0,0,0,0,0,0,0],"split_type":[0,0,0,0,0,0,0,0,0,0,0,0,0,0,0,0,0,0,0,0,0,0,0,0,0,0,0,0,0,0,0],"sum_hessian":[2.804827E4,1.9809678E4,8.238593E3,1.9596254E4,2.1342451E2,4.969026E3,3.2695664E3,1.8562287E4,1.0339662E3,1.9089191E1,1.9433531E2,3.5056812E3,1.463345E3,2.5445635E3,7.250029E2,1.7852291E4,7.0999603E2,6.961523E2,3.378139E2,6.762563E0,1.2326629E1,9.610843E1,9.822688E1,1.8596403E3,1.6460409E3,1.0127051E3,4.5063986E2,1.1798282E3,1.3647352E3,7.151739E2,9.829043E0],"tree_param":{"num_deleted":"0","num_feature":"8","num_nodes":"31","size_leaf_vector":"1"}},{"base_weights":[1.6226195E-4,-4.0513195E-2,9.842281E-2,-4.9916904E-2,8.7879276E-1,-9.3219236E-2,3.9355543E-1,-3.0036625E-2,-4.136117E-1,1.3720323E-1,9.5221347E-1,4.6269197E-2,-4.2854953E-1,2.3824024E-1,9.6498674E-1,-1.9035505E-1,-2.7734912E-3,-8.0379255E-2,-1.8001076E-2,-1.4146394E-1,1.051136E-1,7.514659E-2,1.14171974E-1,-1.9482723E-2,3.1983852E-2,-5.930057E-2,-5.9690606E-3,4.8130345E-2,2.9581299E-3,1.0009336E-1,-1.4524035E-1],"categories":[],"categories_nodes":[],"categories_segments":[],"categories_sizes":[],"default_left":[0,0,0,0,0,0,0,0,0,0,0,0,0,0,0,0,0,0,0,0,0,0,0,0,0,0,0,0,0,0,0],"id":20,"left_children":[1,3,5,7,9,11,13,15,17,19,21,23,25,27,29,-1,-1,-1,-1,-1,-1,-1,-1,-1,-1,-1,-1,-1,-1,-1,-1],"loss_changes":[1.1175167E2,1.7099272E2,4.6302286E2,1.4152379E2,1.07743225E1,2.3220312E2,2.8580997E2,7.999107E1,9.232237E1,2.873341E1,6.068573E0,2.313406E2,8.842926E1,1.285776E2,6.1278503E1,0E0,0E0,0E0,0E0,0E0,0E0,0E0,0E0,0E0,0E0,0E0,0E0,0E0,0E0,0E0,0E0],"parents":[2147483647,0,0,1,1,2,2,3,3,4,4,5,5,6,6,7,7,8,8,9,9,10,10,11,11,12,12,13,13,14,14],"right_children":[2,4,6,8,10,12,14,16,18,20,22,24,26,28,30,-1,-1,-1,-1,-1,-1,-1,-1,-1,-1,-1,-1,-1,-1,-1,-1],"split_conditions":[8.660254E-1,1E0,5E-1,2.23E2,-2.4492937E-16,6.6E1,1.16E2,1E0,1E0,3.42E2,9.5E1,2.4E1,1.46E2,6E0,3E0,-1.9035505E-1,-2.7734912E-3,-8.0379255E-2,-1.8001076E-2,-1.4146394E-1,1.051136E-1,7.514659E-2,1.14171974E-1,-1.9482723E-2,3.1983852E-2,-5.930057E-2,-5.9690606E-3,4.8130345E-2,2.9581299E-3,1.0009336E-1,-1.4524035E-1],"split_indices":[6,2,7,0,6,0,0,1,5,0,0,0,0,0,1,0,0,0,0,0,0,0,0,0,0,0,0,0,0,0,0],"split_type":[0,0,0,0,0,0,0,0,0,0,0,0,0,0,0,0,0,0,0,0,0,0,0,0,0,0,0,0,0,0,0],"sum_hessian":[2.795834E4,1.977356E4,8.184779E3,1.957428E4,1.9928238E2,4.962865E3,3.2219133E3,1.8560791E4,1.0134871E3,1.8210901E1,1.8107147E2,3.5055234E3,1.4573419E3,2.5344626E3,6.874508E2,2.1761406E1,1.8539031E4,3.7862817E2,6.3485895E2,6.5467577E0,1.16641445E1,9.033903E1,9.0732445E1,1.8635054E3,1.642018E3,1.00752716E3,4.4981482E2,1.1701124E3,1.3643502E3,6.7795544E2,9.495328E0],"tree_param":{"num_deleted":"0","num_feature":"8","num_nodes":"31","size_leaf_vector":"1"}},{"base_weights":[2.0339365E-4,9.810766E-2,-3.741822E-2,1.16420425E-1,-9.4827664E-1,-4.4200692E-2,7.08233E-1,1.2624694E-1,-1.7249036E-1,-1.2449198E-1,1.1761723E-1,-3.9802846E-2,-1.1370432E-1,8.710614E-1,-1.2761222E-1,-3.2079164E-3,2.3451775E-2,-4.1555073E-3,2.0817307E-1,1.0673829E-1,6.747646E-2],"categories":[],"categories_nodes":[],"categories_segments":[],"categories_sizes":[],"default_left":[0,0,0,0,0,0,0,0,0,0,0,0,0,0,0,0,0,0,0,0,0],"id":21,"left_children":[1,3,5,7,9,11,13,15,-1,-1,-1,17,-1,19,-1,-1,-1,-1,-1,-1,-1],"loss_changes":[1.0265123E2,1.4835724E2,1.0185014E2,1.3780756E2,8.539198E1,9.5848495E1,5.976783E1,1.2968433E2,0E0,0E0,0E0,7.396396E1,0E0,5.768074E0,0E0,0E0,0E0,0E0,0E0,0E0,0E0],"parents":[2147483647,0,0,1,1,2,2,3,3,4,4,5,5,6,6,7,7,11,11,13,13],"right_children":[2,4,6,8,10,12,14,16,-1,-1,-1,18,-1,20,-1,-1,-1,-1,-1,-1,-1],"split_conditions":[2E0,2.14E2,1E0,3E0,1E0,3.63E2,8.660254E-1,8E0,-1.7249036E-1,-1.2449198E-1,1.1761723E-1,1.2E1,-1.1370432E-1,1E0,-1.2761222E-1,-3.2079164E-3,2.3451775E-2,-4.1555073E-3,2.0817307E-1,1.0673829E-1,6.747646E-2],"split_indices":[1,0,2,5,2,0,6,0,0,0,0,1,0,0,0,0,0,0,0,0,0],"split_type":[0,0,0,0,0,0,0,0,0,0,0,0,0,0,0,0,0,0,0,0,0],"sum_hessian":[2.7867242E4,7.7354243E3,2.0131818E4,7.6032485E3,1.3217567E2,1.9951281E4,1.8053682E2,7.5638145E3,3.9434067E1,1.16344185E2,1.5831486E1,1.9872346E4,7.893444E1,1.6736458E2,1.3172243E1,3.0721155E3,4.4916987E3,1.9856926E4,1.5419941E1,8.145835E1,8.590623E1],"tree_param":{"num_deleted":"0","num_feature":"8","num_nodes":"21","size_leaf_vector":"1"}},{"base_weights":[1.7308776E-4,-1.0201776E-1,3.3375498E-2,1.3771059E-1,-1.9936816E-1,5.2694753E-2,-4.198989E-1,3.9405636E-2,7.646372E-1,-4.762908E-1,1.0808506E-1,7.938447E-2,-2.8506124E-1,4.4352017E-2,-6.435122E-1,-2.1196187E-2,2.9418169E-2,1.2249017E-1,3.420677E-2,-2.9408649E-2,-1.11077845E-1,5.7326056E-2,-7.511972E-3,-2.1114303E-2,1.0312956E-2,-4.803705E-2,3.811291E-2,-3.839545E-2,1.030769E-1,-3.4877993E-2,-1.2504967E-1],"categories":[],"categories_nodes":[],"categories_segments":[],"categories_sizes":[],"default_left":[0,0,0,0,0,0,0,0,0,0,0,0,0,0,0,0,0,0,0,0,0,0,0,0,0,0,0,0,0,0,0],"id":22,"left_children":[1,3,5,7,9,11,13,15,17,19,21,23,25,27,29,-1,-1,-1,-1,-1,-1,-1,-1,-1,-1,-1,-1,-1,-1,-1,-1],"loss_changes":[9.4353004E1,1.5917642E2,1.8382E2,1.21385796E2,4.130122E2,1.815025E2,8.911226E1,1.0919634E2,5.1508728E1,2.9470685E2,1.9599297E2,1.287373E2,1.9204016E2,1.1864873E2,1.03185745E2,0E0,0E0,0E0,0E0,0E0,0E0,0E0,0E0,0E0,0E0,0E0,0E0,0E0,0E0,0E0,0E0],"parents":[2147483647,0,0,1,1,2,2,3,3,4,4,5,5,6,6,7,7,8,8,9,9,10,10,11,11,12,12,13,13,14,14],"right_children":[2,4,6,8,10,12,14,16,18,20,22,24,26,28,30,-1,-1,-1,-1,-1,-1,-1,-1,-1,-1,-1,-1,-1,-1,-1,-1],"split_conditions":[-5E-1,9E0,1E0,1E0,9.3E1,1.74E2,1.2246469E-16,1E0,-8.660254E-1,5.8E1,1.24E2,1E0,-1.8369701E-16,2E0,4E0,-2.1196187E-2,2.9418169E-2,1.2249017E-1,3.420677E-2,-2.9408649E-2,-1.11077845E-1,5.7326056E-2,-7.511972E-3,-2.1114303E-2,1.0312956E-2,-4.803705E-2,3.811291E-2,-3.839545E-2,1.030769E-1,-3.4877993E-2,-1.2504967E-1],"split_indices":[6,0,3,3,0,0,6,5,6,0,0,0,7,5,0,0,0,0,0,0,0,0,0,0,0,0,0,0,0,0,0],"split_type":[0,0,0,0,0,0,0,0,0,0,0,0,0,0,0,0,0,0,0,0,0,0,0,0,0,0,0,0,0,0,0],"sum_hessian":[2.7806273E4,6.818408E3,2.0987865E4,1.9690784E3,4.84933E3,2.0130746E4,8.5711975E2,1.7030891E3,2.659893E2,2.5510522E3,2.2982778E3,1.8657205E4,1.4735404E3,2.788961E2,5.7822363E2,8.573637E2,8.4572534E2,1.2640727E2,1.3958202E2,1.9830485E3,5.680038E2,6.4879425E2,1.6494835E3,1.4090624E3,1.7248143E4,1.139692E3,3.338484E2,1.9488635E2,8.4009735E1,3.9028723E2,1.8793642E2],"tree_param":{"num_deleted":"0","num_feature":"8","num_nodes":"31","size_leaf_vector":"1"}},{"base_weights":[1.0160816E-4,8.9189835E-2,-3.4004577E-2,1.2097725E-1,-4.2714664E-1,-4.0181857E-2,6.8704706E-1,7.917477E-2,5.9021354E-1,-1.272786E0,-1.02059424E-1,-3.6277488E-2,-1.1154659E-1,8.4567535E-1,-1.2381204E-1,8.745617E-3,-1.5770985E-1,-2.0597632E-1,7.00379E-2,6.55045E-2,-1.7135261E-1,3.9304014E-2,-9.1136746E-2,2.9653565E-3,-8.627569E-3,1.056905E-1,6.378939E-2],"categories":[],"categories_nodes":[],"categories_segments":[],"categories_sizes":[],"default_left":[0,0,0,0,0,0,0,0,0,0,0,0,0,0,0,0,0,0,0,0,0,0,0,0,0,0,0],"id":23,"left_children":[1,3,5,7,9,11,13,15,17,19,21,23,-1,25,-1,-1,-1,-1,-1,-1,-1,-1,-1,-1,-1,-1,-1],"loss_changes":[8.433627E1,1.2617374E2,8.9430954E1,1.4195627E2,1.2243884E2,8.351596E1,5.3131256E1,9.1329056E1,1.742754E2,1.0624226E2,1.2983572E2,6.5375656E1,0E0,6.267517E0,0E0,0E0,0E0,0E0,0E0,0E0,0E0,0E0,0E0,0E0,0E0,0E0,0E0],"parents":[2147483647,0,0,1,1,2,2,3,3,4,4,5,5,6,6,7,7,8,8,9,9,10,10,11,11,13,13],"right_children":[2,4,6,8,10,12,14,16,18,20,22,24,-1,26,-1,-1,-1,-1,-1,-1,-1,-1,-1,-1,-1,-1,-1],"split_conditions":[2E0,1.39E2,1E0,1.16E2,1.8E2,3.63E2,8.660254E-1,3E0,-8.660254E-1,-8.660254E-1,2.14E2,3.1E1,-1.1154659E-1,1E0,-1.2381204E-1,8.745617E-3,-1.5770985E-1,-2.0597632E-1,7.00379E-2,6.55045E-2,-1.7135261E-1,3.9304014E-2,-9.1136746E-2,2.9653565E-3,-8.627569E-3,1.056905E-1,6.378939E-2],"split_indices":[1,0,2,0,0,0,6,5,7,7,0,0,0,0,0,0,0,0,0,0,0,0,0,0,0,0,0],"split_type":[0,0,0,0,0,0,0,0,0,0,0,0,0,0,0,0,0,0,0,0,0,0,0,0,0,0,0],"sum_hessian":[2.775426E4,7.6832773E3,2.0070982E4,7.2384214E3,4.44856E2,1.990143E4,1.6955206E2,6.6473984E3,5.910228E2,1.22718056E2,3.2213794E2,1.9830459E4,7.097083E1,1.5716301E2,1.2389055E1,6.6152695E3,3.212927E1,2.2883144E1,5.681397E2,2.2744713E1,9.997334E1,2.0018672E2,1.219512E2,8.552695E3,1.1277764E4,7.590832E1,8.125469E1],"tree_param":{"num_deleted":"0","num_feature":"8","num_nodes":"27","size_leaf_vector":"1"}},{"base_weights":[8.0865815E-5,-3.301939E-2,8.044818E-2,-4.0188454E-2,8.0271304E-1,-2.672602E-1,2.1128951E-1,-6.489925E-3,-1.7733108E-1,3.3567302E-2,8.881338E-1,-2.053774E-1,-1.0739405E0,1.4507057E-1,5.7021767E-1,-2.0579903E-3,1.1335546E-1,-5.540454E-2,-9.034195E-3,-1.3689144E-1,9.600465E-2,6.4191364E-2,1.111617E-1,-2.9185712E-2,1.4026053E-1,-1.4826827E-1,1.2344881E-2,2.1787094E-2,-1.808773E-2,8.9397214E-2,-1.1188502E-2],"categories":[],"categories_nodes":[],"categories_segments":[],"categories_sizes":[],"default_left":[0,0,0,0,0,0,0,0,0,0,0,0,0,0,0,0,0,0,0,0,0,0,0,0,0,0,0,0,0,0,0],"id":24,"left_children":[1,3,5,7,9,11,13,15,17,19,21,23,25,27,29,-1,-1,-1,-1,-1,-1,-1,-1,-1,-1,-1,-1,-1,-1,-1,-1],"loss_changes":[7.362875E1,1.17487946E2,3.6738644E2,8.9832596E1,1.0928078E1,1.1000246E2,1.393663E2,2.5069023E2,1.2559554E2,2.4326944E1,7.5443726E0,2.857467E2,7.706087E1,1.1760856E2,2.0183081E2,0E0,0E0,0E0,0E0,0E0,0E0,0E0,0E0,0E0,0E0,0E0,0E0,0E0,0E0,0E0,0E0],"parents":[2147483647,0,0,1,1,2,2,3,3,4,4,5,5,6,6,7,7,8,8,9,9,10,10,11,11,12,12,13,13,14,14],"right_children":[2,4,6,8,10,12,14,16,18,20,22,24,26,28,30,-1,-1,-1,-1,-1,-1,-1,-1,-1,-1,-1,-1,-1,-1,-1,-1],"split_conditions":[8.660254E-1,1E0,-1.8369701E-16,1.24E2,-2.4492937E-16,1.62E2,1.16E2,1.22E2,1.44E2,3.42E2,9.5E1,1.46E2,2.56E2,4.8E1,1E0,-2.0579903E-3,1.1335546E-1,-5.540454E-2,-9.034195E-3,-1.3689144E-1,9.600465E-2,6.4191364E-2,1.111617E-1,-2.9185712E-2,1.4026053E-1,-1.4826827E-1,1.2344881E-2,2.1787094E-2,-1.808773E-2,8.9397214E-2,-1.1188502E-2],"split_indices":[6,2,7,0,6,0,0,0,0,0,0,0,0,0,6,0,0,0,0,0,0,0,0,0,0,0,0,0,0,0,0],"split_type":[0,0,0,0,0,0,0,0,0,0,0,0,0,0,0,0,0,0,0,0,0,0,0,0,0,0,0,0,0,0,0],"sum_hessian":[2.7676125E4,1.9602986E4,8.0731396E3,1.9437203E4,1.6578392E2,2.20701E3,5.8661294E3,1.5604042E4,3.8331604E3,1.6710676E1,1.4907324E2,2.0509316E3,1.5607832E2,4.953634E3,9.124959E2,1.5414514E4,1.8952829E2,7.1808014E2,3.11508E3,6.4576693E0,1.0253008E1,7.2770935E1,7.630231E1,1.9470356E3,1.0389602E2,1.1618053E2,3.9897793E1,4.0495085E3,9.0412524E2,6.185809E2,2.93915E2],"tree_param":{"num_deleted":"0","num_feature":"8","num_nodes":"31","size_leaf_vector":"1"}},{"base_weights":[1.14808536E-4,2.42628E-3,-1.0921109E-1,-8.2887076E-2,3.0104594E-2,-1.8835022E-1,1.270918E-1,4.7961976E-2,-3.8663262E-1,2.2156404E-3,-7.506145E-2,1.2189442E-1,6.86311E-3,1.0090782E-2,-6.5076314E-3,3.7503873E-3,-5.919176E-2],"categories":[],"categories_nodes":[],"categories_segments":[],"categories_sizes":[],"default_left":[0,0,0,0,0,0,0,0,0,0,0,0,0,0,0,0,0],"id":25,"left_children":[1,3,-1,5,7,9,11,13,15,-1,-1,-1,-1,-1,-1,-1,-1],"loss_changes":[6.9713104E1,6.506807E1,0E0,1.495033E2,1.5485048E2,5.3188745E2,1.4400471E2,1.19415085E2,7.446672E1,0E0,0E0,0E0,0E0,0E0,0E0,0E0,0E0],"parents":[2147483647,0,0,1,1,3,3,4,4,5,5,6,6,7,7,8,8],"right_children":[2,4,-1,6,8,10,12,14,16,-1,-1,-1,-1,-1,-1,-1,-1],"split_conditions":[3.86E2,-5E-1,-1.0921109E-1,9.3E1,1E0,3.4E1,9.6E1,6.9E1,1.2246469E-16,2.2156404E-3,-7.506145E-2,1.2189442E-1,6.86311E-3,1.0090782E-2,-6.5076314E-3,3.7503873E-3,-5.919176E-2],"split_indices":[0,6,0,0,3,0,0,0,6,0,0,0,0,0,0,0,0],"split_type":[0,0,0,0,0,0,0,0,0,0,0,0,0,0,0,0,0],"sum_hessian":[2.7610945E4,2.755363E4,5.731382E1,6.7490186E3,2.0804613E4,4.492657E3,2.256361E3,1.9950605E4,8.540077E2,3.2695342E3,1.2231233E3,1.1366292E2,2.1426982E3,1.3586808E4,6.363798E3,2.788E2,5.752077E2],"tree_param":{"num_deleted":"0","num_feature":"8","num_nodes":"17","size_leaf_vector":"1"}},{"base_weights":[6.044274E-5,2.1571482E-3,-1.0792178E-1,7.771588E-2,-2.6622424E-2,-4.9763694E-2,1.8339446E-1,-3.161145E-2,6.365975E-1,-1.3428418E-3,-9.339184E-2,2.4295049E-2,-4.5683812E-2,-3.319462E-3,1.8590872E-1,7.937638E-2,-1.1907674E-1],"categories":[],"categories_nodes":[],"categories_segments":[],"categories_sizes":[],"default_left":[0,0,0,0,0,0,0,0,0,0,0,0,0,0,0,0,0],"id":26,"left_children":[1,3,-1,5,7,9,11,13,15,-1,-1,-1,-1,-1,-1,-1,-1],"loss_changes":[6.2392193E1,5.9841167E1,0E0,1.02267494E2,6.595975E1,1.1053868E2,1.5836215E2,5.927102E1,4.369155E1,0E0,0E0,0E0,0E0,0E0,0E0,0E0,0E0],"parents":[2147483647,0,0,1,1,3,3,4,4,5,5,6,6,7,7,8,8],"right_children":[2,4,-1,6,8,10,12,14,16,-1,-1,-1,-1,-1,-1,-1,-1],"split_conditions":[3.86E2,2E0,-1.0792178E-1,5E-1,1E0,1.85E2,1E0,1.2E1,8.660254E-1,-1.3428418E-3,-9.339184E-2,2.4295049E-2,-4.5683812E-2,-3.319462E-3,1.8590872E-1,7.937638E-2,-1.1907674E-1],"split_indices":[0,1,0,6,2,0,3,1,6,0,0,0,0,0,0,0,0],"split_type":[0,0,0,0,0,0,0,0,0,0,0,0,0,0,0,0,0],"sum_hessian":[2.7569406E4,2.7516947E4,5.245896E1,7.589514E3,1.9927434E4,3.4401753E3,4.1493384E3,1.9779596E4,1.4783827E2,3.3053535E3,1.3482182E2,3.796774E3,3.525648E2,1.976403E4,1.5566929E1,1.3665096E2,1.1187321E1],"tree_param":{"num_deleted":"0","num_feature":"8","num_nodes":"17","size_leaf_vector":"1"}},{"base_weights":[5.4624907E-5,1.957984E-3,-1.0674341E-1,4.2776972E-2,-4.4343665E-2,8.24796E-2,-2.6834673E-1,-8.283601E-2,9.35071E-2,-1.9104542E-2,1.2325446E-2,-1.2581919E-1,-1.7848548E-2,-1.9910815E-3,-2.2515325E-2,1.4001834E-1,8.262866E-4],"categories":[],"categories_nodes":[],"categories_segments":[],"categories_sizes":[],"default_left":[0,0,0,0,0,0,0,0,0,0,0,0,0,0,0,0,0],"id":27,"left_children":[1,3,-1,5,7,9,11,13,15,-1,-1,-1,-1,-1,-1,-1,-1],"loss_changes":[5.5907646E1,5.191438E1,0E0,1.8034717E2,6.829732E1,1.4442105E2,1.4674667E2,9.009587E1,3.1295096E2,0E0,0E0,0E0,0E0,0E0,0E0,0E0,0E0],"parents":[2147483647,0,0,1,1,3,3,4,4,5,5,6,6,7,7,8,8],"right_children":[2,4,-1,6,8,10,12,14,16,-1,-1,-1,-1,-1,-1,-1,-1],"split_conditions":[3.86E2,1E0,-1.0674341E-1,1.35E2,1.22E2,1E0,1.44E2,4.5E1,1.24E2,-1.9104542E-2,1.2325446E-2,-1.2581919E-1,-1.7848548E-2,-1.9910815E-3,-2.2515325E-2,1.4001834E-1,8.262866E-4],"split_indices":[0,5,0,0,0,0,0,0,0,0,0,0,0,0,0,0,0],"split_type":[0,0,0,0,0,0,0,0,0,0,0,0,0,0,0,0,0],"sum_hessian":[2.7514094E4,2.746612E4,4.797461E1,1.4597347E4,1.2868772E4,1.2946033E4,1.6513141E3,1.0060076E4,2.8086958E3,1.6790408E3,1.1266992E4,1.3635266E2,1.5149614E3,6.9765522E3,3.0835244E3,1.7106593E2,2.63763E3],"tree_param":{"num_deleted":"0","num_feature":"8","num_nodes":"17","size_leaf_vector":"1"}},{"base_weights":[2.2938799E-5,3.7808793E-3,-4.9215126E-1,4.332947E-2,-4.1120693E-2,-9.476566E-1,4.6411667E-2,7.4310005E-2,-2.1262103E-1,-7.2485276E-2,1.1192408E-1,-1.11434996E-1,5.674448E-1,-1.224339E-1,8.4473336E-1,-1.7155873E-2,1.1109271E-2,-1.1633625E-1,-1.23576E-2,-1.2188207E-2,4.77143E-3,-2.051282E-2,2.294989E-2,-9.530457E-2,8.977317E-2,1.5704118E-1,-1.0473861E-1],"categories":[],"categories_nodes":[],"categories_segments":[],"categories_sizes":[],"default_left":[0,0,0,0,0,0,0,0,0,0,0,0,0,0,0,0,0,0,0,0,0,0,0,0,0,0,0],"id":28,"left_children":[1,3,5,7,9,11,13,15,17,19,21,-1,23,-1,25,-1,-1,-1,-1,-1,-1,-1,-1,-1,-1,-1,-1],"loss_changes":[5.0823112E1,4.842812E1,5.1123882E1,1.149924E2,6.131298E1,2.9134659E1,9.879252E1,1.1699996E2,1.324185E2,6.2941814E1,8.103444E1,0E0,6.8058014E0,0E0,8.3720276E1,0E0,0E0,0E0,0E0,0E0,0E0,0E0,0E0,0E0,0E0,0E0,0E0],"parents":[2147483647,0,0,1,1,2,2,3,3,4,4,5,5,6,6,7,7,8,8,9,9,10,10,12,12,14,14],"right_children":[2,4,6,8,10,12,14,16,18,20,22,-1,24,-1,26,-1,-1,-1,-1,-1,-1,-1,-1,-1,-1,-1,-1],"split_conditions":[3.12E2,1E0,1.2246469E-16,1.35E2,3E0,1E0,3.3E2,1E0,1.44E2,9.2E1,-5E-1,-1.11434996E-1,3.42E2,-1.224339E-1,3.63E2,-1.7155873E-2,1.1109271E-2,-1.1633625E-1,-1.23576E-2,-1.2188207E-2,4.77143E-3,-2.051282E-2,2.294989E-2,-9.530457E-2,8.977317E-2,1.5704118E-1,-1.0473861E-1],"split_indices":[0,5,6,0,1,2,0,0,0,0,6,0,0,0,0,0,0,0,0,0,0,0,0,0,0,0,0],"split_type":[0,0,0,0,0,0,0,0,0,0,0,0,0,0,0,0,0,0,0,0,0,0,0,0,0,0,0],"sum_hessian":[2.7476463E4,2.7269244E4,2.0721892E2,1.4498889E4,1.2770355E4,1.1185483E2,9.536409E1,1.2934047E4,1.5648417E3,1.0598794E4,2.1715618E3,1.0100647E2,1.0848357E1,3.658896E1,5.877513E1,1.682689E3,1.1251357E4,1.329764E2,1.4318652E3,7.5117695E3,3.0870247E3,5.872468E2,1.5843148E3,1.5994961E0,9.248861E0,4.2605E1,1.6170132E1],"tree_param":{"num_deleted":"0","num_feature":"8","num_nodes":"27","size_leaf_vector":"1"}},{"base_weights":[-3.4844266E-5,-1.0523653E-3,1.7016672E-1,-1.3587538E-5,-1.7654105E-1,6.636564E-2,-2.5185887E-2,7.4524037E-3,-1.5218253E-1,8.804101E-3,-5.40188E-3],"categories":[],"categories_nodes":[],"categories_segments":[],"categories_sizes":[],"default_left":[0,0,0,0,0,0,0,0,0,0,0],"id":29,"left_children":[1,3,-1,5,-1,7,9,-1,-1,-1,-1],"loss_changes":[4.7523617E1,5.027264E1,0E0,4.5809296E1,0E0,9.7783966E1,6.489857E1,0E0,0E0,0E0,0E0],"parents":[2147483647,0,0,1,1,3,3,5,5,6,6],"right_children":[2,4,-1,6,-1,8,10,-1,-1,-1,-1],"split_conditions":[1.2E1,5E0,1.7016672E-1,2E0,-1.7654105E-1,3E0,6E0,7.4524037E-3,-1.5218253E-1,8.804101E-3,-5.40188E-3],"split_indices":[1,1,0,1,0,5,0,0,0,0,0],"split_type":[0,0,0,0,0,0,0,0,0,0,0],"sum_hessian":[2.7444193E4,2.7428791E4,1.5401477E1,2.741365E4,1.5139966E1,7.536996E3,1.9876656E4,7.499425E3,3.757083E1,4.033813E3,1.5842842E4],"tree_param":{"num_deleted":"0","num_feature":"8","num_nodes":"11","size_leaf_vector":"1"}},{"base_weights":[-4.1170388E-5,1.516788E-3,-1.0458801E-1,2.4697823E-3,-1.6335233E-1,-6.564716E-2,2.4546642E-2,-1.2816623E-2,2.9768372E-2,-2.2289796E-2,4.6460186E-3],"categories":[],"categories_nodes":[],"categories_segments":[],"categories_sizes":[],"default_left":[0,0,0,0,0,0,0,0,0,0,0],"id":30,"left_children":[1,3,-1,5,-1,7,9,-1,-1,-1,-1],"loss_changes":[4.467799E1,4.266646E1,0E0,4.115278E1,0E0,1.5219193E2,1.120764E2,0E0,0E0,0E0,0E0],"parents":[2147483647,0,0,1,1,3,3,5,5,6,6],"right_children":[2,4,-1,6,-1,8,10,-1,-1,-1,-1],"split_conditions":[3.86E2,4E0,-1.0458801E-1,-5E-1,-1.6335233E-1,1.82E2,1E0,-1.2816623E-2,2.9768372E-2,-2.2289796E-2,4.6460186E-3],"split_indices":[0,4,0,6,0,0,0,0,0,0,0],"split_type":[0,0,0,0,0,0,0,0,0,0,0],"sum_hessian":[2.7418375E4,2.7378588E4,3.9786602E1,2.7363637E4,1.4950594E1,6.697351E3,2.0666285E4,5.7146646E3,9.8268646E2,1.6805526E3,1.8985732E4],"tree_param":{"num_deleted":"0","num_feature":"8","num_nodes":"11","size_leaf_vector":"1"}},{"base_weights":[-6.0633938E-5,3.2796864E-3,-4.6401557E-1,2.3535604E-3,1.5768556E-1,3.958174E-2,-9.700967E-1,3.3058412E-3,-1.635615E-1,-1.1801405E-1,7.1731544E-1,-1.148571E-1,5.2165365E-1,3.9091744E-3,-3.7320573E-3,1.8324304E-1,-1.0338845E-1,-9.243478E-2,8.55135E-2],"categories":[],"categories_nodes":[],"categories_segments":[],"categories_sizes":[],"default_left":[0,0,0,0,0,0,0,0,0,0,0,0,0,0,0,0,0,0,0],"id":31,"left_children":[1,3,5,7,-1,9,11,13,-1,-1,15,-1,17,-1,-1,-1,-1,-1,-1],"loss_changes":[4.249465E1,3.9670914E1,4.999244E1,4.244645E1,0E0,8.285351E1,2.663749E1,3.953808E1,0E0,0E0,1.27639496E2,0E0,6.161491E0,0E0,0E0,0E0,0E0,0E0,0E0],"parents":[2147483647,0,0,1,1,2,2,3,3,5,5,6,6,7,7,10,10,12,12],"right_children":[2,4,6,8,-1,10,12,14,-1,-1,16,-1,18,-1,-1,-1,-1,-1,-1],"split_conditions":[3.12E2,1.2E1,-5E-1,5E0,1.5768556E-1,3.3E2,1E0,1E0,-1.635615E-1,-1.1801405E-1,3.63E2,-1.148571E-1,3.42E2,3.9091744E-3,-3.7320573E-3,1.8324304E-1,-1.0338845E-1,-9.243478E-2,8.55135E-2],"split_indices":[0,1,7,1,0,0,2,5,0,0,0,0,0,0,0,0,0,0,0],"split_type":[0,0,0,0,0,0,0,0,0,0,0,0,0,0,0,0,0,0,0],"sum_hessian":[2.74182E4,2.7223193E4,1.9500496E2,2.7208182E4,1.5011845E1,9.820437E1,9.680059E1,2.7193371E4,1.4811681E1,3.481188E1,6.3392494E1,8.66623E1,1.0138298E1,1.4458019E4,1.2735353E4,3.8701855E1,2.469064E1,1.5679092E0,8.570389E0],"tree_param":{"num_deleted":"0","num_feature":"8","num_nodes":"19","size_leaf_vector":"1"}},{"base_weights":[-9.63394E-5,-3.1045822E-3,4.9535298E-1,-1.2054659E-3,-1.0471045E-1,7.4881715E-1,-1.5001436E0,-2.7462123E-2,6.2358513E-2,-1.1757042E-1,8.4244186E-1,-2.1018152E-1,-1.2444248E-1,-1.7404206E-1,-2.5454087E-3,-8.800565E-3,3.0193513E-2,-1.2911071E-1,8.232711E-2,5.9028327E-2,1.0838028E-1],"categories":[],"categories_nodes":[],"categories_segments":[],"categories_sizes":[],"default_left":[0,0,0,0,0,0,0,0,0,0,0,0,0,0,0,0,0,0,0,0,0],"id":32,"left_children":[1,3,5,7,-1,9,11,13,15,17,19,-1,-1,-1,-1,-1,-1,-1,-1,-1,-1],"loss_changes":[4.084055E1,5.399977E1,8.476677E1,4.537782E1,0E0,1.2055588E1,3.0329132E-1,6.6138596E1,2.8634247E2,1.7903753E1,7.463867E0,0E0,0E0,0E0,0E0,0E0,0E0,0E0,0E0,0E0,0E0],"parents":[2147483647,0,0,1,1,2,2,3,3,5,5,6,6,7,7,8,8,9,9,10,10],"right_children":[2,4,6,8,-1,10,12,14,16,18,20,-1,-1,-1,-1,-1,-1,-1,-1,-1,-1],"split_conditions":[1E0,3.63E2,8.660254E-1,8.660254E-1,-1.0471045E-1,-2.4492937E-16,5.3E1,1E0,5E-1,3.42E2,9.5E1,-2.1018152E-1,-1.2444248E-1,-1.7404206E-1,-2.5454087E-3,-8.800565E-3,3.0193513E-2,-1.2911071E-1,8.232711E-2,5.9028327E-2,1.0838028E-1],"split_indices":[2,0,6,6,0,6,0,1,7,0,0,0,0,0,0,0,0,0,0,0,0],"split_type":[0,0,0,0,0,0,0,0,0,0,0,0,0,0,0,0,0,0,0,0,0],"sum_hessian":[2.7399793E4,2.723542E4,1.6437285E2,2.7186967E4,4.8454033E1,1.464019E2,1.7970945E1,1.9239986E4,7.94698E3,1.4252822E1,1.3214908E2,3.2067208E0,1.4764225E1,2.1514227E1,1.9218473E4,4.882952E3,3.0640278E3,6.176464E0,8.076358E0,6.631404E1,6.583504E1],"tree_param":{"num_deleted":"0","num_feature":"8","num_nodes":"21","size_leaf_vector":"1"}},{"base_weights":[-9.035804E-5,8.070562E-2,-1.7349344E-2,-7.202086E-2,2.2779097E-1,-9.066924E-3,-3.7957546E-1,2.526269E-1,-3.8380876E-1,8.4030606E-2,4.561386E-1,-1.1615588E-1,2.578088E-2,4.0498126E-2,-9.2208695E-1,7.165191E-3,6.0852528E-2,-4.533212E-2,1.0335199E-1,1.2271191E-2,-2.038025E-1,5.4211784E-2,-2.0086348E-1,-2.9600862E-2,1.3054964E-2,4.8215706E-3,-2.1754948E-2,4.118731E-2,-4.599285E-2,-1.2753786E-1,-3.1592708E-2],"categories":[],"categories_nodes":[],"categories_segments":[],"categories_sizes":[],"default_left":[0,0,0,0,0,0,0,0,0,0,0,0,0,0,0,0,0,0,0,0,0,0,0,0,0,0,0,0,0,0,0],"id":33,"left_children":[1,3,5,7,9,11,13,15,17,19,21,23,25,27,29,-1,-1,-1,-1,-1,-1,-1,-1,-1,-1,-1,-1,-1,-1,-1,-1],"loss_changes":[3.815688E1,1.0820896E2,6.763989E1,2.3934346E2,8.051017E1,8.226699E1,1.14895065E2,7.4575386E1,1.1929352E2,1.2394743E2,2.0193301E2,2.4018762E2,9.080924E1,5.3157104E1,4.6707367E1,0E0,0E0,0E0,0E0,0E0,0E0,0E0,0E0,0E0,0E0,0E0,0E0,0E0,0E0,0E0,0E0],"parents":[2147483647,0,0,1,1,2,2,3,3,4,4,5,5,6,6,7,7,8,8,9,9,10,10,11,11,12,12,13,13,14,14],"right_children":[2,4,6,8,10,12,14,16,18,20,22,24,26,28,30,-1,-1,-1,-1,-1,-1,-1,-1,-1,-1,-1,-1,-1,-1,-1,-1],"split_conditions":[3E0,1E0,1E0,6.123234E-17,8.660254E-1,-5E-1,1.2246469E-16,1E0,1E0,4E0,2E0,9E1,1.74E2,8E0,5E-1,7.165191E-3,6.0852528E-2,-4.533212E-2,1.0335199E-1,1.2271191E-2,-2.038025E-1,5.4211784E-2,-2.0086348E-1,-2.9600862E-2,1.3054964E-2,4.8215706E-3,-2.1754948E-2,4.118731E-2,-4.599285E-2,-1.2753786E-1,-3.1592708E-2],"split_indices":[0,0,3,7,6,6,6,5,2,1,5,0,0,0,7,0,0,0,0,0,0,0,0,0,0,0,0,0,0,0,0],"split_type":[0,0,0,0,0,0,0,0,0,0,0,0,0,0,0,0,0,0,0,0,0,0,0,0,0,0,0,0,0,0,0],"sum_hessian":[2.736126E4,4.815301E3,2.2545959E4,2.3625996E3,2.4527014E3,2.2042963E4,5.0299463E2,1.1575233E3,1.2050763E3,1.5059631E3,9.467382E2,5.4113364E3,1.6631627E4,2.840085E2,2.189861E2,7.681294E2,3.8939392E2,1.1493851E3,5.5691074E1,1.4799288E3,2.6034298E1,9.155799E2,3.1158329E1,3.1296013E3,2.281735E3,1.5228387E4,1.4032406E3,1.6312656E2,1.2088197E2,1.3765298E2,8.13331E1],"tree_param":{"num_deleted":"0","num_feature":"8","num_nodes":"31","size_leaf_vector":"1"}},{"base_weights":[-9.605364E-5,5.9985764E-2,-2.2780865E-2,6.984696E-2,-1.1571224E-1,7.152661E-2,-4.886614E-2,-5.621013E-2,1.5762949E-1,4.6505493E-1,3.7987802E-2,-9.293223E-1,-3.8469516E-2,5.6812647E-3,-4.253614E-2,2.0263888E-2,-7.2476126E-2,1.0970417E-2,1.5703878E-1,7.824793E-3,-8.06353E-2,-1.2262038E-1,2.1004505E-1,-3.342529E-3,-9.193855E-2],"categories":[],"categories_nodes":[],"categories_segments":[],"categories_sizes":[],"default_left":[0,0,0,0,0,0,0,0,0,0,0,0,0,0,0,0,0,0,0,0,0,0,0,0,0],"id":34,"left_children":[1,3,5,7,-1,9,11,13,15,17,19,21,23,-1,-1,-1,-1,-1,-1,-1,-1,-1,-1,-1,-1],"loss_changes":[3.724345E1,8.997057E1,4.8801376E1,8.222888E1,0E0,5.6713158E1,1.4220428E2,1.2731508E2,1.7411566E2,1.3237866E2,1.3473833E2,1.6565462E2,6.8216034E1,0E0,0E0,0E0,0E0,0E0,0E0,0E0,0E0,0E0,0E0,0E0,0E0],"parents":[2147483647,0,0,1,1,2,2,3,3,5,5,6,6,7,7,8,8,9,9,10,10,11,11,12,12],"right_children":[2,4,6,8,-1,10,12,14,16,18,20,22,24,-1,-1,-1,-1,-1,-1,-1,-1,-1,-1,-1,-1],"split_conditions":[2E0,2.31E2,7E0,8E0,-1.1571224E-1,-8.660254E-1,8E0,8.660254E-1,2E0,1E0,1E0,4E0,1E0,5.6812647E-3,-4.253614E-2,2.0263888E-2,-7.2476126E-2,1.0970417E-2,1.5703878E-1,7.824793E-3,-8.06353E-2,-1.2262038E-1,2.1004505E-1,-3.342529E-3,-9.193855E-2],"split_indices":[1,0,0,0,0,6,0,7,5,3,3,5,3,0,0,0,0,0,0,0,0,0,0,0,0],"split_type":[0,0,0,0,0,0,0,0,0,0,0,0,0,0,0,0,0,0,0,0,0,0,0,0,0],"sum_hessian":[2.732372E4,7.488479E3,1.9835242E4,7.4292285E3,5.9250103E1,4.297288E3,1.5537953E4,3.0498936E3,4.379335E3,3.364679E2,3.9608203E3,1.8030292E2,1.535765E4,2.3356387E3,7.1425476E2,4.1675264E3,2.1180876E2,2.5544482E2,8.102309E1,3.7814207E3,1.7939958E2,1.6475424E2,1.5548667E1,1.5271244E4,8.640695E1],"tree_param":{"num_deleted":"0","num_feature":"8","num_nodes":"25","size_leaf_vector":"1"}},{"base_weights":[-9.387062E-5,-6.898355E-3,1.9901237E-1,5.415642E-2,-3.0977285E-2,4.0972587E-1,-2.3731758E-1,6.6181295E-2,-8.3155686E-1,6.515404E-2,-5.5269495E-2,2.488624E-1,1.5980223E0,1.4678583E-1,-1.7246847E-1,7.320394E-3,-1.433013E-1,-1.1792522E-1,1.102693E-1,-1.37325665E-2,1.7057596E-2,-3.9067235E-2,-3.6115577E-3,3.5641965E-2,-1.8471792E-1,1.9255155E-1,-1.7534678E-1,-2.1919047E-2,9.408266E-2],"categories":[],"categories_nodes":[],"categories_segments":[],"categories_sizes":[],"default_left":[0,0,0,0,0,0,0,0,0,0,0,0,0,0,0,0,0,0,0,0,0,0,0,0,0,0,0,0,0],"id":35,"left_children":[1,3,5,7,9,11,13,15,17,19,21,23,25,27,-1,-1,-1,-1,-1,-1,-1,-1,-1,-1,-1,-1,-1,-1,-1],"loss_changes":[3.6966145E1,3.8788708E1,8.299594E1,7.95355E1,4.4190582E1,1.15898636E2,1.683661E2,7.763013E1,6.857465E1,8.150936E1,9.702702E1,1.2173033E2,8.279312E1,6.843597E1,0E0,0E0,0E0,0E0,0E0,0E0,0E0,0E0,0E0,0E0,0E0,0E0,0E0,0E0,0E0],"parents":[2147483647,0,0,1,1,2,2,3,3,4,4,5,5,6,6,7,7,8,8,9,9,10,10,11,11,12,12,13,13],"right_children":[2,4,6,8,10,12,14,16,18,20,22,24,26,28,-1,-1,-1,-1,-1,-1,-1,-1,-1,-1,-1,-1,-1,-1,-1],"split_conditions":[4E0,2E0,4.9E1,2.14E2,6E0,4.4E1,1.2246469E-16,3E0,1E0,1E0,1E1,3.4E1,-2.4492937E-16,2E0,-1.7246847E-1,7.320394E-3,-1.433013E-1,-1.1792522E-1,1.102693E-1,-1.37325665E-2,1.7057596E-2,-3.9067235E-2,-3.6115577E-3,3.5641965E-2,-1.8471792E-1,1.9255155E-1,-1.7534678E-1,-2.1919047E-2,9.408266E-2],"split_indices":[1,1,0,0,0,0,6,5,2,0,0,0,6,5,0,0,0,0,0,0,0,0,0,0,0,0,0,0,0],"split_type":[0,0,0,0,0,0,0,0,0,0,0,0,0,0,0,0,0,0,0,0,0,0,0,0,0,0,0,0,0],"sum_hessian":[2.7282992E4,2.6382338E4,9.0065485E2,7.4615386E3,1.8920799E4,6.073924E2,2.9326242E2,7.362507E3,9.903174E1,3.816423E3,1.5104376E4,5.360368E2,7.135559E1,2.3378914E2,5.9473297E1,7.329126E3,3.3380493E1,8.427333E1,1.4758406E1,1.3065951E3,2.5098281E3,8.149229E2,1.4289453E4,5.106624E2,2.5374407E1,6.5391304E1,5.964281E0,1.6052605E2,7.3263084E1],"tree_param":{"num_deleted":"0","num_feature":"8","num_nodes":"29","size_leaf_vector":"1"}},{"base_weights":[-1.2965203E-4,-9.83495E-4,1.4934662E-1,-1.2840983E-4,-1.5279303E-1,1.4519104E-3,-8.048508E-1,2.5730472E-4,-1.0161308E-1,1.11393176E-1,-1.6705279E-1],"categories":[],"categories_nodes":[],"categories_segments":[],"categories_sizes":[],"default_left":[0,0,0,0,0,0,0,0,0,0,0],"id":36,"left_children":[1,3,-1,5,-1,7,9,-1,-1,-1,-1],"loss_changes":[3.4755955E1,3.5563007E1,0E0,3.462153E1,0E0,3.1000546E1,9.0491455E1,0E0,0E0,0E0,0E0],"parents":[2147483647,0,0,1,1,3,3,5,5,6,6],"right_children":[2,4,-1,6,-1,8,10,-1,-1,-1,-1],"split_conditions":[1.2E1,5E0,1.4934662E-1,2E0,-1.5279303E-1,3.86E2,-8.660254E-1,2.5730472E-4,-1.0161308E-1,1.11393176E-1,-1.6705279E-1],"split_indices":[1,1,0,4,0,0,6,0,0,0,0],"split_type":[0,0,0,0,0,0,0,0,0,0,0],"sum_hessian":[2.7251092E4,2.7236521E4,1.4570944E1,2.7222277E4,1.4244302E1,2.7169918E4,5.2358303E1,2.7141014E4,2.8905548E1,1.6188824E1,3.616948E1],"tree_param":{"num_deleted":"0","num_feature":"8","num_nodes":"11","size_leaf_vector":"1"}},{"base_weights":[-1.3041994E-4,-2.6030366E-3,4.4612765E-1,-1.0409744E-3,-1.0322459E-1,7.006896E-1,-1.4450239E-1,-1.8225816E-3,1.4121176E-1,-1.1156508E-1,7.9274625E-1,-1.0406866E-4,-1.4437854E-1,-1.2267126E-1,7.9006135E-2,5.1559728E-2,1.0484878E-1],"categories":[],"categories_nodes":[],"categories_segments":[],"categories_sizes":[],"default_left":[0,0,0,0,0,0,0,0,0,0,0,0,0,0,0,0,0],"id":37,"left_children":[1,3,5,7,-1,9,-1,11,-1,13,15,-1,-1,-1,-1,-1,-1],"loss_changes":[3.0065733E1,4.3581547E1,7.329276E1,2.9888418E1,0E0,1.0033485E1,0E0,3.048899E1,0E0,1.5463631E1,7.935501E0,0E0,0E0,0E0,0E0,0E0,0E0],"parents":[2147483647,0,0,1,1,2,2,3,3,5,5,7,7,9,9,10,10],"right_children":[2,4,6,8,-1,10,-1,12,-1,14,16,-1,-1,-1,-1,-1,-1],"split_conditions":[1E0,3.63E2,8.660254E-1,1.2E1,-1.0322459E-1,-2.4492937E-16,-1.4450239E-1,5E0,1.4121176E-1,3.42E2,9.5E1,-1.0406866E-4,-1.4437854E-1,-1.2267126E-1,7.9006135E-2,5.1559728E-2,1.0484878E-1],"split_indices":[2,0,6,1,0,6,0,1,0,0,0,0,0,0,0,0,0],"split_type":[0,0,0,0,0,0,0,0,0,0,0,0,0,0,0,0,0],"sum_hessian":[2.7245586E4,2.7096445E4,1.491412E2,2.7056398E4,4.0046017E1,1.3200229E2,1.713892E1,2.7042441E4,1.3958259E1,1.3415936E1,1.1858635E2,2.7028785E4,1.3655462E1,5.836587E0,7.5793495E0,5.8358696E1,6.0227654E1],"tree_param":{"num_deleted":"0","num_feature":"8","num_nodes":"17","size_leaf_vector":"1"}},{"base_weights":[-1.2051845E-4,-6.2239757E-3,1.7905718E-1,-2.9641263E-2,5.017075E-2,3.7248862E-1,-2.2463138E-1,-3.421759E-2,6.646751E-1,-2.2981852E-1,1.5688409E-1,2.2811648E-1,1.4280814E0,1.2157992E-1,-1.6097398E-1,-1.6228452E-1,-3.234999E-3,1.0116456E-1,4.100992E-2,-7.352577E-3,-4.8784148E-2,9.179748E-3,5.261376E-2,3.253494E-2,-1.6989128E-1,1.7218137E-1,-1.6097184E-1,-2.1902125E-2,8.3539374E-2],"categories":[],"categories_nodes":[],"categories_segments":[],"categories_sizes":[],"default_left":[0,0,0,0,0,0,0,0,0,0,0,0,0,0,0,0,0,0,0,0,0,0,0,0,0,0,0,0,0],"id":38,"left_children":[1,3,5,7,9,11,13,15,17,19,21,23,25,27,-1,-1,-1,-1,-1,-1,-1,-1,-1,-1,-1,-1,-1,-1,-1],"loss_changes":[2.9782812E1,3.478178E1,7.013624E1,5.9154068E1,2.3092734E2,9.216203E1,1.3985577E2,5.480285E1,1.03531E1,8.597805E1,1.3443681E2,1.0080661E2,6.7754364E1,5.7057045E1,0E0,0E0,0E0,0E0,0E0,0E0,0E0,0E0,0E0,0E0,0E0,0E0,0E0,0E0,0E0],"parents":[2147483647,0,0,1,1,2,2,3,3,4,4,5,5,6,6,7,7,8,8,9,9,10,10,11,11,12,12,13,13],"right_children":[2,4,6,8,10,12,14,16,18,20,22,24,26,28,-1,-1,-1,-1,-1,-1,-1,-1,-1,-1,-1,-1,-1,-1,-1],"split_conditions":[4E0,8.660254E-1,4.9E1,1E0,-1.8369701E-16,4.4E1,1.2246469E-16,1E0,1E0,6.5E1,1.16E2,3.4E1,-2.4492937E-16,2E0,-1.6097398E-1,-1.6228452E-1,-3.234999E-3,1.0116456E-1,4.100992E-2,-7.352577E-3,-4.8784148E-2,9.179748E-3,5.261376E-2,3.253494E-2,-1.6989128E-1,1.7218137E-1,-1.6097184E-1,-2.1902125E-2,8.3539374E-2],"split_indices":[1,6,0,2,7,0,6,1,0,0,0,0,6,5,0,0,0,0,0,0,0,0,0,0,0,0,0,0,0],"split_type":[0,0,0,0,0,0,0,0,0,0,0,0,0,0,0,0,0,0,0,0,0,0,0,0,0,0,0,0,0],"sum_hessian":[2.723163E4,2.633551E4,8.9612E2,1.8608861E4,7.72665E3,6.0588257E2,2.9023743E2,1.8487955E4,1.2090574E2,2.1319058E3,5.594744E3,5.3405646E2,7.182613E1,2.3292857E2,5.7308857E1,2.0689898E1,1.8467266E4,4.990907E1,7.099667E1,1.3284849E3,8.034209E2,4.7574233E3,8.373206E2,5.0919495E2,2.486149E1,6.588843E1,5.9377093E0,1.5815636E2,7.4772224E1],"tree_param":{"num_deleted":"0","num_feature":"8","num_nodes":"29","size_leaf_vector":"1"}},{"base_weights":[-1.1358089E-4,6.43765E-4,-1.4293088E-1,-7.3432435E-5,1.3544105E-1,6.3540385E-4,-1.3790342E-1,3.0792563E-4,-3.8631782E-2],"categories":[],"categories_nodes":[],"categories_segments":[],"categories_sizes":[],"default_left":[0,0,0,0,0,0,0,0,0],"id":39,"left_children":[1,3,-1,5,-1,7,-1,-1,-1],"loss_changes":[2.9432316E1,2.6387312E1,0E0,2.6552725E1,0E0,2.5676943E1,0E0,0E0,0E0],"parents":[2147483647,0,0,1,1,3,3,5,5],"right_children":[2,4,-1,6,-1,8,-1,-1,-1],"split_conditions":[4E0,1.2E1,-1.4293088E-1,5E0,1.3544105E-1,3.12E2,-1.3790342E-1,3.0792563E-4,-3.8631782E-2],"split_indices":[4,1,0,1,0,0,0,0,0],"split_type":[0,0,0,0,0,0,0,0,0],"sum_hessian":[2.7189994E4,2.7176592E4,1.3401618E1,2.7163201E4,1.33905525E1,2.7150246E4,1.2956681E1,2.6980836E4,1.6940887E2],"tree_param":{"num_deleted":"0","num_feature":"8","num_nodes":"9","size_leaf_vector":"1"}},{"base_weights":[-1.13534625E-4,1.242014E-3,-7.238893E-1,7.003953E-2,-1.3434463E-2,1.0448023E-1,-1.5469977E-1,-6.2437546E-2,1.9751754E-1,-9.997553E-2,1.4751734E-2,2.2317706E-2,-3.392632E-2,7.382604E-3,3.9646257E-2,-2.5623778E-2,1.2741128E-2,-1.849719E-2,4.202394E-3],"categories":[],"categories_nodes":[],"categories_segments":[],"categories_sizes":[],"default_left":[0,0,0,0,0,0,0,0,0,0,0,0,0,0,0,0,0,0,0],"id":40,"left_children":[1,3,5,7,9,-1,-1,11,13,15,17,-1,-1,-1,-1,-1,-1,-1,-1],"loss_changes":[2.6672451E1,2.7399462E1,7.5602615E1,8.058613E1,5.4555794E1,0E0,0E0,1.851229E2,5.98086E1,1.9527306E2,9.190409E1,0E0,0E0,0E0,0E0,0E0,0E0,0E0,0E0],"parents":[2147483647,0,0,1,1,2,2,3,3,4,4,7,7,8,8,9,9,10,10],"right_children":[2,4,6,8,10,-1,-1,12,14,16,18,-1,-1,-1,-1,-1,-1,-1,-1],"split_conditions":[2E0,3E0,-8.660254E-1,1E0,-5E-1,1.0448023E-1,-1.5469977E-1,6.123234E-17,8.660254E-1,9.3E1,8E0,2.2317706E-2,-3.392632E-2,7.382604E-3,3.9646257E-2,-2.5623778E-2,1.2741128E-2,-1.849719E-2,4.202394E-3],"split_indices":[4,0,6,0,6,0,0,7,6,0,0,0,0,0,0,0,0,0,0],"split_type":[0,0,0,0,0,0,0,0,0,0,0,0,0,0,0,0,0,0,0],"sum_hessian":[2.718399E4,2.713417E4,4.982089E1,4.7700923E3,2.2364076E4,1.5736669E1,3.408422E1,2.3394307E3,2.4306616E3,5.4937812E3,1.6870295E4,1.1515322E3,1.1878986E3,1.4996466E3,9.3101495E2,3.2560605E3,2.237721E3,2.0261713E3,1.4844124E4],"tree_param":{"num_deleted":"0","num_feature":"8","num_nodes":"19","size_leaf_vector":"1"}},{"base_weights":[-1.0565337E-4,2.3241457E-2,-4.597578E-2,1.1851598E-2,9.600429E-1,-3.193761E-1,1.2759955E-2,4.1348595E-2,-1.8979828E-1,-1.462167E-1,1.1310111E0,-7.769098E-1,-1.9478683E-1,-5.6962524E-2,2.1300267E-1,1.1671175E-3,3.0762319E-2,-1.405703E-2,-1.6450465E-1,1.1957772E-1,-1.4502199E-1,-1.4437382E-1,-5.6160487E-2,-1.1483147E-2,-1.8137081E-1,8.849905E-3,-2.0381793E-2,-1.0044745E-2,6.4885005E-2],"categories":[],"categories_nodes":[],"categories_segments":[],"categories_sizes":[],"default_left":[0,0,0,0,0,0,0,0,0,0,0,0,0,0,0,0,0,0,0,0,0,0,0,0,0,0,0,0,0],"id":41,"left_children":[1,3,5,7,9,11,13,15,17,-1,19,21,23,25,27,-1,-1,-1,-1,-1,-1,-1,-1,-1,-1,-1,-1,-1,-1],"loss_changes":[2.9101843E1,1.9213808E2,1.4719388E2,1.0584186E2,9.123093E1,9.224965E1,1.0536448E2,1.22666374E2,1.624444E2,0E0,3.5605682E1,4.8950073E1,1.6487741E2,1.19599266E2,2.6633966E2,0E0,0E0,0E0,0E0,0E0,0E0,0E0,0E0,0E0,0E0,0E0,0E0,0E0,0E0],"parents":[2147483647,0,0,1,1,2,2,3,3,4,4,5,5,6,6,7,7,8,8,10,10,11,11,12,12,13,13,14,14],"right_children":[2,4,6,8,10,12,14,16,18,-1,20,22,24,26,28,-1,-1,-1,-1,-1,-1,-1,-1,-1,-1,-1,-1,-1,-1],"split_conditions":[6.6E1,6.5E1,8.8E1,2E0,-5E-1,-5E-1,5E-1,3E0,5.8E1,-1.462167E-1,2E0,7.2E1,8.6E1,-2.4492937E-16,1.2246469E-16,1.1671175E-3,3.0762319E-2,-1.405703E-2,-1.6450465E-1,1.1957772E-1,-1.4502199E-1,-1.4437382E-1,-5.6160487E-2,-1.1483147E-2,-1.8137081E-1,8.849905E-3,-2.0381793E-2,-1.0044745E-2,6.4885005E-2],"split_indices":[0,0,0,5,6,6,7,1,0,0,5,0,0,6,6,0,0,0,0,0,0,0,0,0,0,0,0,0,0],"split_type":[0,0,0,0,0,0,0,0,0,0,0,0,0,0,0,0,0,0,0,0,0,0,0,0,0,0,0,0,0],"sum_hessian":[2.7172246E4,1.800732E4,9.164926E3,1.7792014E4,2.1530696E2,1.6199625E3,7.544963E3,1.5522241E4,2.269772E3,1.3697262E1,2.0160971E2,3.45593E2,1.2743695E3,5.596896E3,1.9480668E3,1.3966645E4,1.5555972E3,2.1965635E3,7.3208496E1,1.971985E2,4.4112024E0,8.2957344E1,2.6263562E2,1.2154136E3,5.8955986E1,2.8119915E3,2.7849048E3,1.1335886E3,8.144781E2],"tree_param":{"num_deleted":"0","num_feature":"8","num_nodes":"29","size_leaf_vector":"1"}},{"base_weights":[-1.2396519E-4,1.0926881E-2,-8.061345E-2,1.606769E-3,6.9270104E-1,-1.2214328E-1,-4.685127E-2,8.291077E-3,-1.147976E0,7.4243957E-1,-1.4869377E-1,-5.9262973E-1,8.19218E-4,-7.99085E-4,1.6138842E-2,-1.5827605E-1,2.9498516E-2,7.9026304E-2,-1.4758651E-1,-2.0758681E-2,-1.1841247E-1,-2.3195045E-2,1.0195243E-2],"categories":[],"categories_nodes":[],"categories_segments":[],"categories_sizes":[],"default_left":[0,0,0,0,0,0,0,0,0,0,0,0,0,0,0,0,0,0,0,0,0,0,0],"id":42,"left_children":[1,3,5,7,9,-1,11,13,15,17,-1,19,21,-1,-1,-1,-1,-1,-1,-1,-1,-1,-1],"loss_changes":[2.412321E1,1.5152553E2,1.2604738E2,1.807876E2,3.5968597E1,0E0,8.276138E1,5.83086E1,8.5796326E1,3.459285E1,0E0,5.7949493E1,6.891436E1,0E0,0E0,0E0,0E0,0E0,0E0,0E0,0E0,0E0,0E0],"parents":[2147483647,0,0,1,1,2,2,3,3,4,4,6,6,7,7,8,8,9,9,11,11,12,12],"right_children":[2,4,6,8,10,-1,12,14,16,18,-1,20,22,-1,-1,-1,-1,-1,-1,-1,-1,-1,-1],"split_conditions":[1.49E2,1.44E2,1.54E2,1.4E2,8.660254E-1,-1.2214328E-1,-8.660254E-1,1.1E2,3E0,4E0,-1.4869377E-1,2.23E2,1.82E2,-7.99085E-4,1.6138842E-2,-1.5827605E-1,2.9498516E-2,7.9026304E-2,-1.4758651E-1,-2.0758681E-2,-1.1841247E-1,-2.3195045E-2,1.0195243E-2],"split_indices":[0,0,0,0,7,0,6,0,1,1,0,0,0,0,0,0,0,0,0,0,0,0,0],"split_type":[0,0,0,0,0,0,0,0,0,0,0,0,0,0,0,0,0,0,0,0,0,0,0],"sum_hessian":[2.7118684E4,2.3845646E4,3.2730364E3,2.3525053E4,3.2059402E2,9.306904E1,3.1799673E3,2.3390043E4,1.3500981E2,3.140861E2,6.5079484E0,2.5452167E2,2.9254456E3,2.1142484E4,2.2475588E3,1.03674385E2,3.1335428E1,3.0808792E2,5.998178E0,1.5498361E2,9.953807E1,8.8567346E2,2.0397722E3],"tree_param":{"num_deleted":"0","num_feature":"8","num_nodes":"23","size_leaf_vector":"1"}},{"base_weights":[-1.880455E-4,2.1712739E-2,-4.3481205E-2,1.1448937E-2,8.868877E-1,-3.9019123E-1,-3.7833985E-3,3.802129E-2,-1.7061448E-1,-1.3891627E-1,1.0440205E0,-5.3846574E-1,6.279156E-1,1.6729265E-2,-6.049667E-1,1.1303466E-3,2.7798949E-2,-1.258644E-2,-1.5478465E-1,1.1044953E-1,-1.3586544E-1,-6.757685E-3,-7.599046E-2,1.1406799E-1,-2.8516179E-2,-6.0759974E-3,2.7295804E-2,-7.76933E-2,1.7578194E-1],"categories":[],"categories_nodes":[],"categories_segments":[],"categories_sizes":[],"default_left":[0,0,0,0,0,0,0,0,0,0,0,0,0,0,0,0,0,0,0,0,0,0,0,0,0,0,0,0,0],"id":43,"left_children":[1,3,5,7,9,11,13,15,17,-1,19,21,23,25,27,-1,-1,-1,-1,-1,-1,-1,-1,-1,-1,-1,-1,-1,-1],"loss_changes":[2.5694054E1,1.5979033E2,1.2529501E2,8.605065E1,7.690222E1,1.4152092E2,1.007518E2,9.950997E1,1.3942458E2,0E0,3.0258163E1,8.512781E1,5.6205276E1,1.5688367E2,1.1089624E2,0E0,0E0,0E0,0E0,0E0,0E0,0E0,0E0,0E0,0E0,0E0,0E0,0E0,0E0],"parents":[2147483647,0,0,1,1,2,2,3,3,4,4,5,5,6,6,7,7,8,8,10,10,11,11,12,12,13,13,14,14],"right_children":[2,4,6,8,10,12,14,16,18,-1,20,22,24,26,28,-1,-1,-1,-1,-1,-1,-1,-1,-1,-1,-1,-1,-1,-1],"split_conditions":[6.6E1,6.5E1,7.9E1,2E0,-5E-1,1E0,1E0,3E0,5.8E1,-1.3891627E-1,2E0,-5E-1,6.9E1,5E-1,1E0,1.1303466E-3,2.7798949E-2,-1.258644E-2,-1.5478465E-1,1.1044953E-1,-1.3586544E-1,-6.757685E-3,-7.599046E-2,1.1406799E-1,-2.8516179E-2,-6.0759974E-3,2.7295804E-2,-7.76933E-2,1.7578194E-1],"split_indices":[0,0,0,5,6,7,7,1,0,0,5,7,0,7,3,0,0,0,0,0,0,0,0,0,0,0,0,0,0],"split_type":[0,0,0,0,0,0,0,0,0,0,0,0,0,0,0,0,0,0,0,0,0,0,0,0,0,0,0,0,0],"sum_hessian":[2.709703E4,1.7994578E4,9.10245E3,1.7784607E4,2.0997035E2,9.342378E2,8.1682124E3,1.5520208E4,2.2644001E3,1.3053354E1,1.9691699E2,8.1588544E2,1.1835238E2,7.899645E3,2.685675E2,1.3966265E4,1.5539432E3,2.194196E3,7.020412E1,1.9260938E2,4.307624E0,2.613758E2,5.5450964E2,7.5630615E1,4.272176E1,6.065935E3,1.8337098E3,2.5097261E2,1.7594894E1],"tree_param":{"num_deleted":"0","num_feature":"8","num_nodes":"29","size_leaf_vector":"1"}},{"base_weights":[-1.9567809E-4,6.9423515E-4,-9.971578E-2,1.9227242E-3,-6.813101E-1,-1.05212945E-4,4.026461E-1,9.779275E-2,-1.466959E-1,4.850798E-3,-1.8261559E-3,6.518128E-2,-1.3907072E-1],"categories":[],"categories_nodes":[],"categories_segments":[],"categories_sizes":[],"default_left":[0,0,0,0,0,0,0,0,0,0,0,0,0],"id":44,"left_children":[1,3,-1,5,7,9,11,-1,-1,-1,-1,-1,-1],"loss_changes":[2.400374E1,2.2649168E1,0E0,2.1928205E1,6.479724E1,2.3698769E1,6.1618874E1,0E0,0E0,0E0,0E0,0E0,0E0],"parents":[2147483647,0,0,1,1,3,3,4,4,5,5,6,6],"right_children":[2,4,-1,6,8,10,12,-1,-1,-1,-1,-1,-1],"split_conditions":[3.86E2,2E0,-9.971578E-2,1E0,-8.660254E-1,2E0,8.660254E-1,9.779275E-2,-1.466959E-1,4.850798E-3,-1.8261559E-3,6.518128E-2,-1.3907072E-1],"split_indices":[0,4,0,2,6,1,6,0,0,0,0,0,0],"split_type":[0,0,0,0,0,0,0,0,0,0,0,0,0],"sum_hessian":[2.7053537E4,2.7030408E4,2.3128714E1,2.69828E4,4.7606724E1,2.6847932E4,1.3486935E2,1.5219474E1,3.238725E1,7.3001855E3,1.9547746E4,1.1897555E2,1.5893803E1],"tree_param":{"num_deleted":"0","num_feature":"8","num_nodes":"13","size_leaf_vector":"1"}},{"base_weights":[-1.8687046E-4,-7.263021E-1,9.342871E-4,-1.8047704E-1,2.1933937E-1,7.711919E-3,-1.1796394E-1,-1.328238E-1,9.1440964E-1,-2.0965755E-3,3.229832E-1,-4.156684E-1,6.806851E-2,-1.15919255E-1,1.18431605E-1,1.0582398E-3,-2.9667316E-2,-4.234011E-3,1.0881654E-1,-8.442697E-2,-1.6784307E-2,-1.5249787E-1,1.1311918E-2],"categories":[],"categories_nodes":[],"categories_segments":[],"categories_sizes":[],"default_left":[0,0,0,0,0,0,0,0,0,0,0,0,0,0,0,0,0,0,0,0,0,0,0],"id":45,"left_children":[1,3,5,-1,7,9,11,-1,13,15,17,19,21,-1,-1,-1,-1,-1,-1,-1,-1,-1,-1],"loss_changes":[2.2007675E1,4.289957E1,2.175235E1,0E0,2.6059885E1,7.897045E1,8.065021E1,0E0,1.0624922E1,9.250878E1,2.1543945E2,5.9337723E1,6.453032E1,0E0,0E0,0E0,0E0,0E0,0E0,0E0,0E0,0E0,0E0],"parents":[2147483647,0,0,1,1,2,2,4,4,5,5,6,6,8,8,9,9,10,10,11,11,12,12],"right_children":[2,4,6,-1,8,10,12,-1,14,16,18,20,22,-1,-1,-1,-1,-1,-1,-1,-1,-1,-1],"split_conditions":[1E0,1E0,2.06E2,-1.8047704E-1,8.660254E-1,1.82E2,1E0,-1.328238E-1,1E0,1.49E2,6.123234E-17,-5E-1,2.08E2,-1.15919255E-1,1.18431605E-1,1.0582398E-3,-2.9667316E-2,-4.234011E-3,1.0881654E-1,-8.442697E-2,-1.6784307E-2,-1.5249787E-1,1.1311918E-2],"split_indices":[1,5,0,0,6,0,5,0,0,0,7,7,0,0,0,0,0,0,0,0,0,0,0],"split_type":[0,0,0,0,0,0,0,0,0,0,0,0,0,0,0,0,0,0,0,0,0,0,0],"sum_hessian":[2.7031648E4,4.0676674E1,2.6990973E4,1.857924E1,2.2097435E1,2.5536248E4,1.454724E3,6.5663915E0,1.5531042E1,2.4766717E4,7.69531E2,5.5897375E2,8.9575024E2,1.4092722E0,1.412177E1,2.3745637E4,1.0210802E3,5.2149615E2,2.4803488E2,2.0391188E2,3.550619E2,2.3731314E1,8.720189E2],"tree_param":{"num_deleted":"0","num_feature":"8","num_nodes":"23","size_leaf_vector":"1"}},{"base_weights":[-2.1447976E-4,-8.426938E-4,1.2712234E-1,-1.8874614E-4,-1.3287562E-1,6.1685825E-4,-9.893876E-2,-1.2726469E-4,3.927895E-2],"categories":[],"categories_nodes":[],"categories_segments":[],"categories_sizes":[],"default_left":[0,0,0,0,0,0,0,0,0],"id":46,"left_children":[1,3,-1,5,-1,7,-1,-1,-1],"loss_changes":[2.1576468E1,2.3445833E1,0E0,2.150689E1,0E0,1.9982903E1,0E0,0E0,0E0],"parents":[2147483647,0,0,1,1,3,3,5,5],"right_children":[2,4,-1,6,-1,8,-1,-1,-1],"split_conditions":[1.2E1,5E0,1.2712234E-1,3.86E2,-1.3287562E-1,1E0,-9.893876E-2,-1.2726469E-4,3.927895E-2],"split_indices":[1,1,0,0,0,2,0,0,0],"split_type":[0,0,0,0,0,0,0,0,0],"sum_hessian":[2.7010955E4,2.6998615E4,1.2340605E1,2.6986324E4,1.2289611E1,2.6965363E4,2.0961239E1,2.6837059E4,1.2830539E2],"tree_param":{"num_deleted":"0","num_feature":"8","num_nodes":"9","size_leaf_vector":"1"}},{"base_weights":[-1.9667431E-4,8.2670024E-4,-7.0999235E-1,1.94288E-3,-6.476077E-1,-1.0157863E-1,7.0998125E-2,1.3701083E-3,1.2241242E-1,9.168205E-2,-1.4025806E-1,1.968154E-4,-1.2753837E-1],"categories":[],"categories_nodes":[],"categories_segments":[],"categories_sizes":[],"default_left":[0,0,0,0,0,0,0,0,0,0,0,0,0],"id":47,"left_children":[1,3,5,7,9,-1,-1,11,-1,-1,-1,-1,-1],"loss_changes":[1.9617052E1,1.9519619E1,1.7604225E1,1.884477E1,5.6022713E1,0E0,0E0,2.0550364E1,0E0,0E0,0E0,0E0,0E0],"parents":[2147483647,0,0,1,1,2,2,3,3,4,4,7,7],"right_children":[2,4,6,8,10,-1,-1,12,-1,-1,-1,-1,-1],"split_conditions":[3.63E2,2E0,1E0,1.2E1,-8.660254E-1,-1.0157863E-1,7.0998125E-2,5E0,1.2241242E-1,9.168205E-2,-1.4025806E-1,1.968154E-4,-1.2753837E-1],"split_indices":[0,4,2,1,6,0,0,1,0,0,0,0,0],"split_type":[0,0,0,0,0,0,0,0,0,0,0,0,0],"sum_hessian":[2.7004535E4,2.6966654E4,3.788135E1,2.692131E4,4.534388E1,3.1403246E1,6.478104E0,2.6909701E4,1.1610031E1,1.4689807E1,3.0654074E1,2.68981E4,1.1600908E1],"tree_param":{"num_deleted":"0","num_feature":"8","num_nodes":"13","size_leaf_vector":"1"}},{"base_weights":[-1.8866922E-4,-6.863034E-1,8.3320873E-4,-1.6840386E-1,2.0218545E-1,1.9455332E-2,-3.611367E-2,-1.2660177E-1,8.584736E-1,1.01831015E-2,8.226531E-1,-3.565287E-1,3.2912844E-4,-1.0977246E-1,1.12261884E-1,3.384053E-3,-1.5199906E-2,-1.3272257E-1,9.655133E-2,-4.9223505E-2,5.675874E-2,1.9390058E-3,-5.60006E-2],"categories":[],"categories_nodes":[],"categories_segments":[],"categories_sizes":[],"default_left":[0,0,0,0,0,0,0,0,0,0,0,0,0,0,0,0,0,0,0,0,0,0,0],"id":48,"left_children":[1,3,5,-1,7,9,11,-1,13,15,17,19,21,-1,-1,-1,-1,-1,-1,-1,-1,-1,-1],"loss_changes":[1.8930079E1,3.593474E1,1.854969E1,0E0,2.241229E1,1.3349153E2,1.0549984E2,0E0,9.44347E0,6.800136E1,6.410892E1,1.15989204E2,8.666511E1,0E0,0E0,0E0,0E0,0E0,0E0,0E0,0E0,0E0,0E0],"parents":[2147483647,0,0,1,1,2,2,4,4,5,5,6,6,8,8,9,9,10,10,11,11,12,12],"right_children":[2,4,6,-1,8,10,12,-1,14,16,18,20,22,-1,-1,-1,-1,-1,-1,-1,-1,-1,-1],"split_conditions":[1E0,1E0,6.6E1,-1.6840386E-1,8.660254E-1,6.5E1,7.9E1,-1.2660177E-1,1E0,2E0,-5E-1,1E0,1E0,-1.0977246E-1,1.12261884E-1,3.384053E-3,-1.5199906E-2,-1.3272257E-1,9.655133E-2,-4.9223505E-2,5.675874E-2,1.9390058E-3,-5.60006E-2],"split_indices":[1,5,0,0,6,0,0,0,0,5,6,7,7,0,0,0,0,0,0,0,0,0,0],"split_type":[0,0,0,0,0,0,0,0,0,0,0,0,0,0,0,0,0,0,0,0,0,0,0],"sum_hessian":[2.6997742E4,3.91525E1,2.695859E4,1.8020664E1,2.1131836E1,1.792462E4,9.033971E3,6.24095E0,1.4890885E1,1.7721057E4,2.0356178E2,9.216641E2,8.1123066E3,1.3960799E0,1.3494805E1,1.5465853E4,2.2552046E3,1.2167329E1,1.9139445E2,8.0405597E2,1.1760817E2,7.8463623E3,2.6594443E2],"tree_param":{"num_deleted":"0","num_feature":"8","num_nodes":"23","size_leaf_vector":"1"}},{"base_weights":[-1.9017125E-4,2.7453477E-4,-1.4105158E-1,1.2058847E-3,-7.0053756E-1,1.7171884E-3,-1.2325592E-1,-1.00847594E-1,6.811796E-2,1.1968172E-4,1.181831E-1],"categories":[],"categories_nodes":[],"categories_segments":[],"categories_sizes":[],"default_left":[0,0,0,0,0,0,0,0,0,0,0],"id":49,"left_children":[1,3,-1,5,7,9,-1,-1,-1,-1,-1],"loss_changes":[1.7679352E1,1.760222E1,0E0,1.6991703E1,1.5915924E1,1.6531326E1,0E0,0E0,0E0,0E0,0E0],"parents":[2147483647,0,0,1,1,3,3,4,4,5,5],"right_children":[2,4,-1,6,8,10,-1,-1,-1,-1,-1],"split_conditions":[5E0,3.63E2,-1.4105158E-1,4E0,1E0,1.2E1,-1.2325592E-1,-1.00847594E-1,6.811796E-2,1.1968172E-4,1.181831E-1],"split_indices":[5,0,0,4,2,1,0,0,0,0,0],"split_type":[0,0,0,0,0,0,0,0,0,0,0],"sum_hessian":[2.6973855E4,2.696597E4,7.8855543E0,2.6931178E4,3.4792133E1,2.692102E4,1.0158146E1,2.8672192E1,6.1199408E0,2.6910154E4,1.0865019E1],"tree_param":{"num_deleted":"0","num_feature":"8","num_nodes":"11","size_leaf_vector":"1"}},{"base_weights":[-1.8302143E-4,5.701556E-3,-1.04548015E-1,-3.193915E-3,2.9127705E-1,-3.8416865E-1,6.6175506E-2,8.240514E-3,-2.7138853E-1,6.192931E-1,-5.435858E-1,-7.9847354E-1,-1.523146E-1,-1.4501695E-1,1.071079E-1,-2.3307462E-5,6.231391E-2,-2.0338377E-2,-1.4464198E-1,8.606269E-2,-1.505844E-1,-9.29886E-2,9.532475E-2,2.22344E-1,-1.0920922E-1,6.057002E-2,-5.645418E-2,1.44650955E-2,-1.5493701E-1],"categories":[],"categories_nodes":[],"categories_segments":[],"categories_sizes":[],"default_left":[0,0,0,0,0,0,0,0,0,0,0,0,0,0,0,0,0,0,0,0,0,0,0,0,0,0,0,0,0],"id":50,"left_children":[1,3,5,7,9,11,13,15,17,19,21,23,25,-1,27,-1,-1,-1,-1,-1,-1,-1,-1,-1,-1,-1,-1,-1,-1],"loss_changes":[1.6564264E1,6.485995E1,6.874855E1,7.593703E1,2.1155089E2,5.231575E1,5.5687473E1,1.2374656E2,8.061725E1,2.85523E2,1.2699182E2,1.7601794E2,1.1009881E2,0E0,5.4460487E1,0E0,0E0,0E0,0E0,0E0,0E0,0E0,0E0,0E0,0E0,0E0,0E0,0E0,0E0],"parents":[2147483647,0,0,1,1,2,2,3,3,4,4,5,5,6,6,7,7,8,8,9,9,10,10,11,11,12,12,14,14],"right_children":[2,4,6,8,10,12,14,16,18,20,22,24,26,-1,28,-1,-1,-1,-1,-1,-1,-1,-1,-1,-1,-1,-1,-1,-1],"split_conditions":[2.06E2,1.82E2,1E0,1.49E2,1.2246469E-16,-5E-1,2.08E2,1.44E2,1E0,3E0,1E0,2.08E2,-1.8369701E-16,-1.4501695E-1,1E0,-2.3307462E-5,6.231391E-2,-2.0338377E-2,-1.4464198E-1,8.606269E-2,-1.505844E-1,-9.29886E-2,9.532475E-2,2.22344E-1,-1.0920922E-1,6.057002E-2,-5.645418E-2,1.44650955E-2,-1.5493701E-1],"split_indices":[0,0,5,0,6,7,0,0,6,1,6,0,7,0,7,0,0,0,0,0,0,0,0,0,0,0,0,0,0],"split_type":[0,0,0,0,0,0,0,0,0,0,0,0,0,0,0,0,0,0,0,0,0,0,0,0,0,0,0,0,0],"sum_hessian":[2.6969338E4,2.5530742E4,1.4385951E3,2.476046E4,7.702817E2,5.4489124E2,8.937039E2,2.37489E4,1.0115608E3,5.531919E2,2.1708981E2,1.9464038E2,3.5025082E2,2.2585697E1,8.711182E2,2.3427064E4,3.2183624E2,9.573286E2,5.423216E1,4.9731143E2,5.5880432E1,1.7285774E2,4.4232075E1,1.6655006E1,1.7798537E2,1.23213356E2,2.2703748E2,8.527049E2,1.8413355E1],"tree_param":{"num_deleted":"0","num_feature":"8","num_nodes":"29","size_leaf_vector":"1"}},{"base_weights":[-2.6463624E-4,-2.0455231E-3,3.807837E-1,-1.049007E-3,-1.00044034E-1,6.1341435E-1,-1.3466E-1,-8.848763E-2,7.138621E-3,3.559649E-1,1.0238842E-1,6.6158585E-3,-7.109917E-2,1.6732937E-2,-1.0432502E-3,-2.93734E-1,8.785115E-2],"categories":[],"categories_nodes":[],"categories_segments":[],"categories_sizes":[],"default_left":[0,0,0,0,0,0,0,0,0,0,0,0,0,0,0,0,0],"id":51,"left_children":[1,3,5,7,-1,9,-1,11,13,15,-1,-1,-1,-1,-1,-1,-1],"loss_changes":[1.8292448E1,2.669302E1,5.1215797E1,1.919052E1,0E0,1.13867E1,0E0,2.2099376E2,6.899245E1,1.2282254E2,0E0,0E0,0E0,0E0,0E0,0E0,0E0],"parents":[2147483647,0,0,1,1,2,2,3,3,5,5,7,7,8,8,9,9],"right_children":[2,4,6,8,-1,10,-1,12,14,16,-1,-1,-1,-1,-1,-1,-1],"split_conditions":[1E0,3.63E2,8.660254E-1,1E0,-1.00044034E-1,1E0,-1.3466E-1,8.660254E-1,3E0,9.5E1,1.0238842E-1,6.6158585E-3,-7.109917E-2,1.6732937E-2,-1.0432502E-3,-2.93734E-1,8.785115E-2],"split_indices":[2,0,6,0,0,7,0,7,0,0,0,0,0,0,0,0,0],"split_type":[0,0,0,0,0,0,0,0,0,0,0,0,0,0,0,0,0],"sum_hessian":[2.6953852E4,2.6829455E4,1.2439688E2,2.6803703E4,2.5752216E1,1.1020078E2,1.4196097E1,2.2941235E3,2.4509578E4,6.88714E1,4.1329388E1,1.8383286E3,4.5579498E2,2.4218413E3,2.2087738E4,8.798488E0,6.007291E1],"tree_param":{"num_deleted":"0","num_feature":"8","num_nodes":"17","size_leaf_vector":"1"}},{"base_weights":[-2.3989046E-4,-4.859434E-3,1.3638082E-1,1.819381E-3,-1.2504277E-1,2.9918727E-1,-2.1013999E-1,-7.3603047E-3,2.9092684E-1,-4.221282E-1,5.071894E-2,1.6923954E-1,1.2539783E0,1.03607394E-1,-1.515013E-1,1.1180815E-4,-3.405891E-2,5.9310455E-2,-4.948912E-2,1.3033641E-2,-5.7427626E-2,-9.734476E-3,4.625879E-2,2.5764992E-2,-1.6129084E-1,1.5230785E-1,-1.5193518E-1,-1.4347761E-2,1.03831135E-1],"categories":[],"categories_nodes":[],"categories_segments":[],"categories_sizes":[],"default_left":[0,0,0,0,0,0,0,0,0,0,0,0,0,0,0,0,0,0,0,0,0,0,0,0,0,0,0,0,0],"id":52,"left_children":[1,3,5,7,9,11,13,15,17,19,21,23,25,27,-1,-1,-1,-1,-1,-1,-1,-1,-1,-1,-1,-1,-1,-1,-1],"loss_changes":[1.7001482E1,2.0915913E1,4.9769314E1,6.5517784E1,7.165321E1,7.4212975E1,1.1569891E2,6.760185E1,1.8069897E2,4.2946075E1,5.266106E1,8.378813E1,5.5827003E1,5.2910576E1,0E0,0E0,0E0,0E0,0E0,0E0,0E0,0E0,0E0,0E0,0E0,0E0,0E0,0E0,0E0],"parents":[2147483647,0,0,1,1,2,2,3,3,4,4,5,5,6,6,7,7,8,8,9,9,10,10,11,11,12,12,13,13],"right_children":[2,4,6,8,10,12,14,16,18,20,22,24,26,28,-1,-1,-1,-1,-1,-1,-1,-1,-1,-1,-1,-1,-1,-1,-1],"split_conditions":[4E0,2.06E2,4.9E1,1.82E2,1E0,4.4E1,1.2246469E-16,1.62E2,1.2246469E-16,2.14E2,5E-1,3.4E1,-2.4492937E-16,2.14E2,-1.515013E-1,1.1180815E-4,-3.405891E-2,5.9310455E-2,-4.948912E-2,1.3033641E-2,-5.7427626E-2,-9.734476E-3,4.625879E-2,2.5764992E-2,-1.6129084E-1,1.5230785E-1,-1.5193518E-1,-1.4347761E-2,1.03831135E-1],"split_indices":[1,0,0,0,5,0,6,0,6,0,6,0,6,0,0,0,0,0,0,0,0,0,0,0,0,0,0,0,0],"split_type":[0,0,0,0,0,0,0,0,0,0,0,0,0,0,0,0,0,0,0,0,0,0,0,0,0,0,0,0,0],"sum_hessian":[2.6936312E4,2.605624E4,8.8007275E2,2.468541E4,1.37083E3,5.9885046E2,2.812223E2,2.392667E4,7.587406E2,5.090293E2,8.618006E2,5.281466E2,7.070387E1,2.2745337E2,5.3768936E1,2.3333977E4,5.9269293E2,5.4818665E2,2.1055392E2,1.0994641E2,3.990829E2,6.344753E2,2.2732532E2,5.0399918E2,2.414742E1,6.4861115E1,5.842759E0,1.805676E2,4.6885773E1],"tree_param":{"num_deleted":"0","num_feature":"8","num_nodes":"29","size_leaf_vector":"1"}},{"base_weights":[-2.6315034E-4,-1.9321406E-3,3.765279E-1,-1.0462893E-3,-9.917979E-2,5.959477E-1,-1.3034888E-1,4.0174108E-2,-1.65031E-2,9.9198945E-2,3.1557384E-1,5.131754E-3,-1.1646699E-1,-1.8508418E-3,5.6456923E-2,-4.6805978E-1,8.5813135E-2],"categories":[],"categories_nodes":[],"categories_segments":[],"categories_sizes":[],"default_left":[0,0,0,0,0,0,0,0,0,0,0,0,0,0,0,0,0],"id":53,"left_children":[1,3,5,7,-1,9,-1,11,13,-1,15,-1,-1,-1,-1,-1,-1],"loss_changes":[1.692758E1,2.3498299E1,4.453543E1,1.7060635E1,0E0,1.1421623E1,0E0,9.810463E1,2.2702776E1,0E0,1.757189E2,0E0,0E0,0E0,0E0,0E0,0E0],"parents":[2147483647,0,0,1,1,2,2,3,3,5,5,7,7,8,8,10,10],"right_children":[2,4,6,8,-1,10,-1,12,14,-1,16,-1,-1,-1,-1,-1,-1],"split_conditions":[1E0,3.63E2,8.660254E-1,2E0,-9.917979E-2,1E0,-1.3034888E-1,2.14E2,3.3E2,9.9198945E-2,9.5E1,5.131754E-3,-1.1646699E-1,-1.8508418E-3,5.6456923E-2,-4.6805978E-1,8.5813135E-2],"split_indices":[2,0,6,1,0,0,0,0,0,0,0,0,0,0,0,0,0],"split_type":[0,0,0,0,0,0,0,0,0,0,0,0,0,0,0,0,0],"sum_hessian":[2.6915701E4,2.6797996E4,1.1770643E2,2.6775035E4,2.296047E1,1.0467991E2,1.3026523E1,7.3015586E3,1.9473477E4,4.2337723E1,6.2342186E1,7.2355947E3,6.59636E1,1.9407469E4,6.600825E1,5.359746E0,5.698244E1],"tree_param":{"num_deleted":"0","num_feature":"8","num_nodes":"17","size_leaf_vector":"1"}},{"base_weights":[-2.6031816E-4,-6.625818E-1,6.8310613E-4,-1.5906206E-1,1.7586283E-1,-4.1950926E-2,1.4570761E-2,-1.21041894E-1,7.959449E-1,1.2870069E-1,-1.2082223E-1,1.7405612E-2,-1.594E-1,-1.0485452E-1,1.0575278E-1,5.617087E-3,6.373059E-2,-3.3607356E-2,9.365358E-3,-1.7753478E-2,3.4647982E-3],"categories":[],"categories_nodes":[],"categories_segments":[],"categories_sizes":[],"default_left":[0,0,0,0,0,0,0,0,0,0,0,0,0,0,0,0,0,0,0,0,0],"id":54,"left_children":[1,3,5,-1,7,9,11,-1,13,15,17,19,-1,-1,-1,-1,-1,-1,-1,-1,-1],"loss_changes":[1.6804312E1,3.0044693E1,1.5901318E1,0E0,1.9012617E1,8.8831566E1,9.240369E1,0E0,8.399727E0,7.6924835E1,2.0840164E2,6.798028E1,0E0,0E0,0E0,0E0,0E0,0E0,0E0,0E0,0E0],"parents":[2147483647,0,0,1,1,2,2,4,4,5,5,6,6,8,8,9,9,10,10,11,11],"right_children":[2,4,6,-1,8,10,12,-1,14,16,18,20,-1,-1,-1,-1,-1,-1,-1,-1,-1],"split_conditions":[1E0,1E0,-5E-1,-1.5906206E-1,8.660254E-1,1.1E1,4E0,-1.21041894E-1,1E0,1E0,9E1,1E0,-1.594E-1,-1.0485452E-1,1.0575278E-1,5.617087E-3,6.373059E-2,-3.3607356E-2,9.365358E-3,-1.7753478E-2,3.4647982E-3],"split_indices":[1,5,6,0,6,0,5,0,0,3,0,0,0,0,0,0,0,0,0,0,0],"split_type":[0,0,0,0,0,0,0,0,0,0,0,0,0,0,0,0,0,0,0,0,0],"sum_hessian":[2.689162E4,3.725294E1,2.6854367E4,1.7255953E1,1.999699E1,6.5977524E3,2.0256615E4,5.8859906E0,1.4110999E1,2.0852732E3,4.512479E3,2.0221965E4,3.464885E1,1.3789806E0,1.2732018E1,1.825988E3,2.5928522E2,2.2518848E3,2.2605942E3,1.6425195E3,1.8579445E4],"tree_param":{"num_deleted":"0","num_feature":"8","num_nodes":"21","size_leaf_vector":"1"}},{"base_weights":[-2.6241184E-4,7.380843E-4,-6.2682354E-1,1.2233357E-2,-5.547875E-2,8.2475E-2,-1.341403E-1,-7.223964E-3,3.2632667E-1,-5.4619926E-1,-2.1211755E-2,1.6921057E-3,-1.6052704E-2,3.715974E-2,-1.7621116E-1,-2.8468344E-2,-1.1609074E-1,-9.770314E-2,-4.2755017E-4],"categories":[],"categories_nodes":[],"categories_segments":[],"categories_sizes":[],"default_left":[0,0,0,0,0,0,0,0,0,0,0,0,0,0,0,0,0,0,0],"id":55,"left_children":[1,3,5,7,9,-1,-1,11,13,15,17,-1,-1,-1,-1,-1,-1,-1,-1],"loss_changes":[1.684722E1,1.7340567E1,4.554876E1,1.3615259E2,7.659058E1,0E0,0E0,7.765821E1,1.2352438E2,4.746267E1,6.894282E1,0E0,0E0,0E0,0E0,0E0,0E0,0E0,0E0],"parents":[2147483647,0,0,1,1,2,2,3,3,4,4,7,7,8,8,9,9,10,10],"right_children":[2,4,6,8,10,-1,-1,12,14,16,18,-1,-1,-1,-1,-1,-1,-1,-1],"split_conditions":[2E0,1.24E2,-8.660254E-1,1.1E2,-8.660254E-1,8.2475E-2,-1.341403E-1,6.9E1,1E0,2.23E2,1.26E2,1.6921057E-3,-1.6052704E-2,3.715974E-2,-1.7621116E-1,-2.8468344E-2,-1.1609074E-1,-9.770314E-2,-4.2755017E-4],"split_indices":[4,0,6,0,6,0,0,0,7,0,0,0,0,0,0,0,0,0,0],"split_type":[0,0,0,0,0,0,0,0,0,0,0,0,0,0,0,0,0,0,0],"sum_hessian":[2.6873312E4,2.6831467E4,4.1845806E1,2.2277023E4,4.5544443E3,1.37534075E1,2.80924E1,2.0978436E4,1.2985864E3,2.9630267E2,4.2581416E3,1.8124709E4,2.853727E3,1.271839E3,2.6747383E1,2.0889528E2,8.7407394E1,7.314977E1,4.184992E3],"tree_param":{"num_deleted":"0","num_feature":"8","num_nodes":"19","size_leaf_vector":"1"}},{"base_weights":[-2.7516755E-4,-1.7966615E-3,3.6363757E-1,-9.898528E-4,-9.848922E-2,5.754688E-1,-1.2662223E-1,9.688389E-3,-5.4246094E-2,9.833932E-2,2.9374027E-1,-7.917058E-4,2.9498175E-2,-2.7795563E-2,1.1973279E-3,-3.9246455E-1,8.2431726E-2],"categories":[],"categories_nodes":[],"categories_segments":[],"categories_sizes":[],"default_left":[0,0,0,0,0,0,0,0,0,0,0,0,0,0,0,0,0],"id":56,"left_children":[1,3,5,7,-1,9,-1,11,13,-1,15,-1,-1,-1,-1,-1,-1],"loss_changes":[1.4866197E1,2.1206247E1,3.9323906E1,1.5193673E1,0E0,1.1159546E1,0E0,1.1178336E2,6.610712E1,0E0,1.3830652E2,0E0,0E0,0E0,0E0,0E0,0E0],"parents":[2147483647,0,0,1,1,2,2,3,3,5,5,7,7,8,8,10,10],"right_children":[2,4,6,8,-1,10,-1,12,14,-1,16,-1,-1,-1,-1,-1,-1],"split_conditions":[1E0,3.63E2,8.660254E-1,1.24E2,-9.848922E-2,1E0,-1.2662223E-1,1.1E2,1.44E2,9.833932E-2,9.5E1,-7.917058E-4,2.9498175E-2,-2.7795563E-2,1.1973279E-3,-3.9246455E-1,8.2431726E-2],"split_indices":[2,0,6,0,0,0,0,0,0,0,0,0,0,0,0,0,0],"split_type":[0,0,0,0,0,0,0,0,0,0,0,0,0,0,0,0,0],"sum_hessian":[2.6847086E4,2.6736299E4,1.1078755E2,2.6715375E4,2.0923819E1,9.861729E1,1.2170266E1,2.2254094E4,4.4612803E3,3.92685E1,5.9348785E1,2.0961531E4,1.2925632E3,1.01822015E3,3.44306E3,5.916036E0,5.343275E1],"tree_param":{"num_deleted":"0","num_feature":"8","num_nodes":"17","size_leaf_vector":"1"}},{"base_weights":[-2.5227584E-4,-7.3367904E-4,1.14927284E-1,-1.9107695E-4,-1.2322257E-1,-4.549635E-3,1.324661E-1,-8.780814E-3,3.302551E-4,2.9354487E-2,-2.2588031E-2],"categories":[],"categories_nodes":[],"categories_segments":[],"categories_sizes":[],"default_left":[0,0,0,0,0,0,0,0,0,0,0],"id":57,"left_children":[1,3,-1,5,-1,7,9,-1,-1,-1,-1],"loss_changes":[1.485181E1,1.7925404E1,0E0,1.5505185E1,0E0,1.6974213E1,4.9306213E1,0E0,0E0,0E0,0E0],"parents":[2147483647,0,0,1,1,3,3,5,5,6,6],"right_children":[2,4,-1,6,-1,8,10,-1,-1,-1,-1],"split_conditions":[1.2E1,5E0,1.14927284E-1,4E0,-1.2322257E-1,1E0,4.9E1,-8.780814E-3,3.302551E-4,2.9354487E-2,-2.2588031E-2],"split_indices":[1,1,0,1,0,0,0,0,0,0,0],"split_type":[0,0,0,0,0,0,0,0,0,0,0],"sum_hessian":[2.683559E4,2.6825354E4,1.0234679E1,2.681454E4,1.0814478E1,2.5962486E4,8.520528E2,2.2366455E3,2.3725842E4,5.8794775E2,2.6410504E2],"tree_param":{"num_deleted":"0","num_feature":"8","num_nodes":"11","size_leaf_vector":"1"}},{"base_weights":[-2.2703181E-4,-6.3192934E-1,6.3208415E-4,-1.5080483E-1,1.6632739E-1,2.2724273E-2,-2.4058457E-2,-1.1545487E-1,7.512791E-1,3.858689E-2,-3.7829736E-1,-5.2910075E-2,7.898956E-2,-9.947283E-2,1.0076431E-1,3.1214876E-3,7.761404E-2,-7.9042576E-2,-1.5245578E-2,-4.4696415E-3,-1.03106335E-1,1.1685373E-1,6.7114114E-4],"categories":[],"categories_nodes":[],"categories_segments":[],"categories_sizes":[],"default_left":[0,0,0,0,0,0,0,0,0,0,0,0,0,0,0,0,0,0,0,0,0,0,0],"id":58,"left_children":[1,3,5,-1,7,9,11,-1,13,15,17,19,21,-1,-1,-1,-1,-1,-1,-1,-1,-1,-1],"loss_changes":[1.4562803E1,2.5738815E1,1.46177435E1,0E0,1.6297333E1,8.9984695E1,3.7628994E1,0E0,7.468816E0,7.3956154E1,4.9978157E1,7.939239E1,2.1801772E2,0E0,0E0,0E0,0E0,0E0,0E0,0E0,0E0,0E0,0E0],"parents":[2147483647,0,0,1,1,2,2,4,4,5,5,6,6,8,8,9,9,10,10,11,11,12,12],"right_children":[2,4,6,-1,8,10,12,-1,14,16,18,20,22,-1,-1,-1,-1,-1,-1,-1,-1,-1,-1],"split_conditions":[1E0,1E0,1E0,-1.5080483E-1,8.660254E-1,2.03E2,1.22E2,-1.1545487E-1,1E0,1.94E2,-5E-1,1.18E2,1.24E2,-9.947283E-2,1.0076431E-1,3.1214876E-3,7.761404E-2,-7.9042576E-2,-1.5245578E-2,-4.4696415E-3,-1.03106335E-1,1.1685373E-1,6.7114114E-4],"split_indices":[1,5,5,0,6,0,0,0,0,0,7,0,0,0,0,0,0,0,0,0,0,0,0],"split_type":[0,0,0,0,0,0,0,0,0,0,0,0,0,0,0,0,0,0,0,0,0,0,0],"sum_hessian":[2.6831973E4,3.5444317E1,2.679653E4,1.6474123E1,1.8970194E1,1.4142458E4,1.2654071E4,5.523611E0,1.3446583E1,1.36052E4,5.372569E2,9.886511E3,2.7675613E3,1.3528241E0,1.209376E1,1.3471592E4,1.3360928E2,1.8930414E2,3.4795276E2,9.805221E3,8.1289856E1,1.712287E2,2.5963325E3],"tree_param":{"num_deleted":"0","num_feature":"8","num_nodes":"23","size_leaf_vector":"1"}},{"base_weights":[-2.3252532E-4,6.723195E-4,-5.988008E-1,5.125084E-2,-1.0169551E-2,7.746478E-2,-1.2939414E-1,8.708699E-2,-3.406792E-1,-3.3749125E-3,-3.29601E-1,1.6369512E-2,-1.3420865E-2,-2.773541E-2,-2.0208469E-1,-1.2698193E-2,1.2459264E-3,4.1683833E-3,-7.9639524E-2],"categories":[],